-5.406495094299316406e+00,-1.719214172363281250e+02,-0.000000000000000000e+00,0.000000000000000000e+00,-3.368518829345703125e+01,0.000000000000000000e+00,-0.000000000000000000e+00,0.000000000000000000e+00,0.000000000000000000e+00,-1.268515348434448242e+00,2.331246137619018555e+00,0.000000000000000000e+00,-1.405606937408447266e+01,-1.516265511512756348e+00,0.000000000000000000e+00,-9.775962829589843750e+00,6.288385009765625000e+01,-8.623299598693847656e+00,-1.997550201416015625e+01,9.982965469360351562e+00,1.557903051376342773e+00,-0.000000000000000000e+00,0.000000000000000000e+00,-6.928281307220458984e+00,-0.000000000000000000e+00,0.000000000000000000e+00,0.000000000000000000e+00,-1.191652774810791016e+01,5.458963513374328613e-01,0.000000000000000000e+00,-0.000000000000000000e+00,0.000000000000000000e+00,-0.000000000000000000e+00,-0.000000000000000000e+00,0.000000000000000000e+00,0.000000000000000000e+00,6.580565929412841797e+00,-0.000000000000000000e+00,-0.000000000000000000e+00,0.000000000000000000e+00,2.527568244934082031e+01,0.000000000000000000e+00,0.000000000000000000e+00,0.000000000000000000e+00,-0.000000000000000000e+00,-0.000000000000000000e+00,6.592233180999755859e+00,0.000000000000000000e+00,-1.102195501327514648e+00,0.000000000000000000e+00,0.000000000000000000e+00,0.000000000000000000e+00,1.134555244445800781e+01,0.000000000000000000e+00,-3.422495651245117188e+01,-3.946406555175781250e+01,-0.000000000000000000e+00,0.000000000000000000e+00,0.000000000000000000e+00,-0.000000000000000000e+00,0.000000000000000000e+00,-0.000000000000000000e+00,-7.404910564422607422e+00,-0.000000000000000000e+00,0.000000000000000000e+00,0.000000000000000000e+00,0.000000000000000000e+00,-5.045201873779296875e+01,0.000000000000000000e+00,-1.794918670654296875e+02,0.000000000000000000e+00,-0.000000000000000000e+00,1.024101018905639648e+00,-3.901752233505249023e+00,-1.623183250427246094e+01,-0.000000000000000000e+00,-0.000000000000000000e+00,-0.000000000000000000e+00,-0.000000000000000000e+00,7.065057754516601562e+00,7.394303083419799805e-01,-7.853767871856689453e+00,0.000000000000000000e+00,-0.000000000000000000e+00,-0.000000000000000000e+00,0.000000000000000000e+00,0.000000000000000000e+00,0.000000000000000000e+00,0.000000000000000000e+00,3.100075531005859375e+01,-3.597826385498046875e+01,-2.233223199844360352e+00,-0.000000000000000000e+00,0.000000000000000000e+00,0.000000000000000000e+00,-0.000000000000000000e+00,-0.000000000000000000e+00,0.000000000000000000e+00,0.000000000000000000e+00,0.000000000000000000e+00,0.000000000000000000e+00,4.152375698089599609e+00,0.000000000000000000e+00,-4.438630580902099609e+00,2.734333801269531250e+01,2.124275016784667969e+01,0.000000000000000000e+00,0.000000000000000000e+00,-3.752658069133758545e-01,0.000000000000000000e+00,0.000000000000000000e+00,4.092374420166015625e+01,0.000000000000000000e+00,-0.000000000000000000e+00,9.877366423606872559e-01,-0.000000000000000000e+00,-0.000000000000000000e+00,0.000000000000000000e+00,0.000000000000000000e+00,0.000000000000000000e+00,0.000000000000000000e+00,4.201521873474121094e+00,-0.000000000000000000e+00,-1.077733840942382812e+02,0.000000000000000000e+00,0.000000000000000000e+00,0.000000000000000000e+00,0.000000000000000000e+00,-2.821466064453125000e+01,0.000000000000000000e+00,-1.579753684997558594e+01,-0.000000000000000000e+00,1.203113555908203125e+01,1.168872346170246601e-03,-0.000000000000000000e+00,1.318519020080566406e+01,0.000000000000000000e+00,0.000000000000000000e+00,-1.416007995605468750e+02,-2.658937454223632812e+00,-0.000000000000000000e+00,0.000000000000000000e+00,-0.000000000000000000e+00,-0.000000000000000000e+00,0.000000000000000000e+00,-0.000000000000000000e+00,3.506535720825195312e+01,-0.000000000000000000e+00,-3.593842744827270508e+00,-2.720278549194335938e+01,-1.690880012512207031e+01,0.000000000000000000e+00,-0.000000000000000000e+00,0.000000000000000000e+00,1.092112350463867188e+02,0.000000000000000000e+00,2.453041267395019531e+01,5.023705959320068359e+00,0.000000000000000000e+00,-0.000000000000000000e+00,-0.000000000000000000e+00,-4.169924163818359375e+01,0.000000000000000000e+00,-2.185670471191406250e+01,-0.000000000000000000e+00,-5.327952575683593750e+01,-0.000000000000000000e+00,0.000000000000000000e+00,-1.853547573089599609e+00,0.000000000000000000e+00,0.000000000000000000e+00,0.000000000000000000e+00,0.000000000000000000e+00,1.676380872726440430e+00,-3.372565269470214844e+00,0.000000000000000000e+00,-1.255866146087646484e+01,0.000000000000000000e+00,0.000000000000000000e+00,5.598522567749023438e+01,-1.448700046539306641e+01,-0.000000000000000000e+00,0.000000000000000000e+00,2.796097755432128906e+01,0.000000000000000000e+00,-4.170349121093750000e+01,1.677951812744140625e+00,6.204388427734375000e+01,-0.000000000000000000e+00,-3.782446289062500000e+01,0.000000000000000000e+00,9.394926071166992188e+00,0.000000000000000000e+00,0.000000000000000000e+00,-0.000000000000000000e+00,0.000000000000000000e+00,-0.000000000000000000e+00,0.000000000000000000e+00,-6.957393169403076172e+00,-7.254423618316650391e+00,-0.000000000000000000e+00,1.792032623291015625e+01,-5.076468658447265625e+01,-1.536590194702148438e+01,0.000000000000000000e+00,1.387653160095214844e+01,-0.000000000000000000e+00,0.000000000000000000e+00,-1.117561850696802139e-02,0.000000000000000000e+00,2.619484329223632812e+01,0.000000000000000000e+00,0.000000000000000000e+00,0.000000000000000000e+00,-8.892467498779296875e+01,0.000000000000000000e+00,0.000000000000000000e+00,2.690616226196289062e+01,1.786439514160156250e+01,0.000000000000000000e+00,-0.000000000000000000e+00,0.000000000000000000e+00,1.308949375152587891e+01,0.000000000000000000e+00,7.261473655700683594e+00,-4.056376457214355469e+00,-7.297170162200927734e+00,1.333705139160156250e+01,-0.000000000000000000e+00,8.751158905029296875e+01,0.000000000000000000e+00,-0.000000000000000000e+00,1.319965209960937500e+02,-5.330624103546142578e+00,-0.000000000000000000e+00,0.000000000000000000e+00,4.111513137817382812e+00,1.203623390197753906e+01,-9.490074157714843750e+00,0.000000000000000000e+00,-0.000000000000000000e+00,-0.000000000000000000e+00,4.283309173583984375e+01,-0.000000000000000000e+00,-9.810976028442382812e+00,1.243685817718505859e+01,0.000000000000000000e+00,0.000000000000000000e+00,0.000000000000000000e+00,0.000000000000000000e+00,-1.089224052429199219e+01,0.000000000000000000e+00,-2.279329299926757812e-02,-0.000000000000000000e+00,0.000000000000000000e+00,-1.265782546997070312e+01,0.000000000000000000e+00,-0.000000000000000000e+00,0.000000000000000000e+00,0.000000000000000000e+00,3.096833992004394531e+01,-4.181142044067382812e+01,0.000000000000000000e+00,0.000000000000000000e+00,-3.289390945434570312e+01,4.730654716491699219e+00,2.238482952117919922e+00,-9.619237184524536133e-01,-3.764456510543823242e+00,1.548199415206909180e+00,-0.000000000000000000e+00,1.491620063781738281e+01,-0.000000000000000000e+00,0.000000000000000000e+00,0.000000000000000000e+00,-1.512487945556640625e+02,0.000000000000000000e+00,-0.000000000000000000e+00,3.486562728881835938e+01,2.457019233703613281e+01,5.640045166015625000e+01,-2.903981685638427734e+00,-0.000000000000000000e+00,-0.000000000000000000e+00,0.000000000000000000e+00,-2.521383094787597656e+01,9.517402052879333496e-01,0.000000000000000000e+00,7.145359039306640625e+00,-2.720725631713867188e+01,-0.000000000000000000e+00,3.080083370208740234e+00,-1.114286041259765625e+01,0.000000000000000000e+00,0.000000000000000000e+00,0.000000000000000000e+00,1.302587836980819702e-01,8.186907768249511719e+00,-0.000000000000000000e+00,-0.000000000000000000e+00,0.000000000000000000e+00,0.000000000000000000e+00,1.797685813903808594e+01,-0.000000000000000000e+00,0.000000000000000000e+00,-0.000000000000000000e+00,0.000000000000000000e+00,-3.197332572937011719e+01,0.000000000000000000e+00,0.000000000000000000e+00,-1.648598289489746094e+01,-2.280692100524902344e+01,9.130473136901855469e+00,-0.000000000000000000e+00,-0.000000000000000000e+00,0.000000000000000000e+00,-1.223340606689453125e+01,-1.460206222534179688e+01,-1.363358688354492188e+01,3.566818714141845703e+00,-0.000000000000000000e+00,1.017238807678222656e+01,-2.530481719970703125e+01,0.000000000000000000e+00,-1.617497863769531250e+02,8.593806266784667969e+00,0.000000000000000000e+00,-5.947671508789062500e+01,-4.841836392879486084e-01,0.000000000000000000e+00,0.000000000000000000e+00,1.299763202667236328e+01,6.416421890258789062e+00,-2.841569137573242188e+01,0.000000000000000000e+00,-0.000000000000000000e+00,-8.591881752014160156e+00,-0.000000000000000000e+00,0.000000000000000000e+00,7.796742439270019531e+00,-8.202923774719238281e+00,0.000000000000000000e+00,0.000000000000000000e+00,-0.000000000000000000e+00,-0.000000000000000000e+00,-0.000000000000000000e+00,5.642934322357177734e+00,-2.279870223999023438e+01,0.000000000000000000e+00,3.620094776153564453e+00,0.000000000000000000e+00,-0.000000000000000000e+00,-6.564970397949218750e+01,1.061541438102722168e+00,5.100955069065093994e-02,-0.000000000000000000e+00,-2.209145545959472656e+01,-0.000000000000000000e+00,0.000000000000000000e+00,-0.000000000000000000e+00,-0.000000000000000000e+00,0.000000000000000000e+00,-0.000000000000000000e+00,2.363348388671875000e+01,-1.710563278198242188e+01,0.000000000000000000e+00,-0.000000000000000000e+00,0.000000000000000000e+00,-0.000000000000000000e+00,6.645733118057250977e-01,-3.438539743423461914e+00,-0.000000000000000000e+00,-0.000000000000000000e+00,5.649770259857177734e+00,0.000000000000000000e+00,0.000000000000000000e+00,0.000000000000000000e+00,-0.000000000000000000e+00,1.209884881973266602e-01,2.660592555999755859e+00,9.049638748168945312e+00,3.503425979614257812e+01,0.000000000000000000e+00,0.000000000000000000e+00,0.000000000000000000e+00,-1.544177246093750000e+02,2.576306915283203125e+01,-5.869554901123046875e+01,0.000000000000000000e+00,-1.578259944915771484e+00,0.000000000000000000e+00,-0.000000000000000000e+00,0.000000000000000000e+00,-0.000000000000000000e+00,2.391331911087036133e+00,0.000000000000000000e+00,0.000000000000000000e+00,-0.000000000000000000e+00,-0.000000000000000000e+00,-0.000000000000000000e+00,0.000000000000000000e+00,0.000000000000000000e+00,-6.855463981628417969e+00,-5.987754821777343750e+00,0.000000000000000000e+00,4.263988971710205078e+00,-2.969386428594589233e-02,0.000000000000000000e+00,-1.763029098510742188e+01,1.848114132881164551e-01,0.000000000000000000e+00,-0.000000000000000000e+00,0.000000000000000000e+00,-5.326195907592773438e+01,-1.312901973724365234e+01,0.000000000000000000e+00,0.000000000000000000e+00,-6.045944213867187500e+00,-0.000000000000000000e+00,-3.033558082580566406e+01,0.000000000000000000e+00,-0.000000000000000000e+00,-0.000000000000000000e+00,0.000000000000000000e+00,2.784612774848937988e-01,-1.418146514892578125e+01,0.000000000000000000e+00,0.000000000000000000e+00,0.000000000000000000e+00,0.000000000000000000e+00,0.000000000000000000e+00,1.559274139404296875e+02,7.704661488533020020e-01,0.000000000000000000e+00,0.000000000000000000e+00,-1.506481885910034180e+00,9.792984771728515625e+01,-0.000000000000000000e+00,0.000000000000000000e+00,1.626838088035583496e+00,0.000000000000000000e+00,-0.000000000000000000e+00,0.000000000000000000e+00,1.445583801269531250e+02,-0.000000000000000000e+00,0.000000000000000000e+00,5.315340042114257812e+01,0.000000000000000000e+00,0.000000000000000000e+00,-3.712692499160766602e+00,2.818451642990112305e+00,0.000000000000000000e+00,-9.538473129272460938e+00,2.912956237792968750e+01,-8.179571151733398438e+00,-0.000000000000000000e+00,-3.951264953613281250e+01,-1.149331927299499512e+00,-2.711866855621337891e+00,0.000000000000000000e+00,0.000000000000000000e+00,-0.000000000000000000e+00,-0.000000000000000000e+00,0.000000000000000000e+00,-1.754962652921676636e-01,0.000000000000000000e+00,7.831490516662597656e+00,-0.000000000000000000e+00,3.920474052429199219e+00,-5.918953418731689453e+00,-0.000000000000000000e+00,-0.000000000000000000e+00,-8.368988800048828125e+01,3.008143997192382812e+01,3.401792144775390625e+01,-0.000000000000000000e+00,-0.000000000000000000e+00,0.000000000000000000e+00,0.000000000000000000e+00,-0.000000000000000000e+00,-2.024017715454101562e+01,-2.925978183746337891e+00,0.000000000000000000e+00,0.000000000000000000e+00,-6.205782413482666016e+00,-0.000000000000000000e+00,1.801380753517150879e+00,-7.598895579576492310e-02,1.996538043022155762e+00,1.375856208801269531e+01,-5.912304306030273438e+01,0.000000000000000000e+00,1.157400703430175781e+01,0.000000000000000000e+00,-0.000000000000000000e+00,0.000000000000000000e+00,-0.000000000000000000e+00,0.000000000000000000e+00,-2.928556688129901886e-02,4.384584808349609375e+01,1.145384788513183594e+01,2.886242628097534180e+00,0.000000000000000000e+00,0.000000000000000000e+00,-0.000000000000000000e+00,0.000000000000000000e+00,0.000000000000000000e+00,0.000000000000000000e+00,-0.000000000000000000e+00,-5.016225337982177734e+00,-0.000000000000000000e+00,-0.000000000000000000e+00,0.000000000000000000e+00,0.000000000000000000e+00,5.471182823181152344e+00,-0.000000000000000000e+00,-5.571849822998046875e+00,-0.000000000000000000e+00,-0.000000000000000000e+00,0.000000000000000000e+00,0.000000000000000000e+00,0.000000000000000000e+00,-1.851006031036376953e+00,-0.000000000000000000e+00,1.138335227966308594e+01,-5.296073150634765625e+01,0.000000000000000000e+00,0.000000000000000000e+00,-0.000000000000000000e+00,-0.000000000000000000e+00,1.130794763565063477e+00,-5.031657695770263672e+00,0.000000000000000000e+00,0.000000000000000000e+00,8.185583949089050293e-01,0.000000000000000000e+00,-4.751761245727539062e+01,1.723536968231201172e+00,0.000000000000000000e+00,-0.000000000000000000e+00,3.304701232910156250e+01,-3.375500440597534180e+00,-2.377936172485351562e+01,-0.000000000000000000e+00,-0.000000000000000000e+00,-1.437695026397705078e+00,-1.765824317932128906e+01,2.575466156005859375e+00,0.000000000000000000e+00,0.000000000000000000e+00,2.220909690856933594e+01,-0.000000000000000000e+00,0.000000000000000000e+00,-0.000000000000000000e+00,1.438036346435546875e+01,1.531985015869140625e+02,5.003813171386718750e+01,-0.000000000000000000e+00,-0.000000000000000000e+00,2.601306533813476562e+01,0.000000000000000000e+00,0.000000000000000000e+00,-0.000000000000000000e+00,-0.000000000000000000e+00,0.000000000000000000e+00,-0.000000000000000000e+00,-4.509399414062500000e+01,-2.779896020889282227e+00,-7.238876342773437500e+00,0.000000000000000000e+00,-5.419057464599609375e+01,9.698455035686492920e-02,1.157848000526428223e+00,-0.000000000000000000e+00,0.000000000000000000e+00,0.000000000000000000e+00,-7.353240203857421875e+01,0.000000000000000000e+00,-0.000000000000000000e+00,-1.833796691894531250e+01,-2.737050771713256836e+00,-1.419515609741210938e+00,9.658896636962890625e+01,-4.668986797332763672e+00,-0.000000000000000000e+00,-0.000000000000000000e+00,0.000000000000000000e+00,-0.000000000000000000e+00,4.082084655761718750e+01,-0.000000000000000000e+00,0.000000000000000000e+00,0.000000000000000000e+00,0.000000000000000000e+00,-5.105217742919921875e+01,-9.932712316513061523e-01,-0.000000000000000000e+00,4.753546142578125000e+01,-0.000000000000000000e+00,1.066795158386230469e+01,0.000000000000000000e+00,0.000000000000000000e+00,0.000000000000000000e+00,1.490744323730468750e+02,0.000000000000000000e+00,0.000000000000000000e+00,0.000000000000000000e+00,0.000000000000000000e+00,0.000000000000000000e+00,-0.000000000000000000e+00,1.842625427246093750e+01,0.000000000000000000e+00,-0.000000000000000000e+00,0.000000000000000000e+00,-0.000000000000000000e+00,0.000000000000000000e+00,0.000000000000000000e+00,0.000000000000000000e+00,0.000000000000000000e+00,-1.906233429908752441e+00,-0.000000000000000000e+00,0.000000000000000000e+00,-0.000000000000000000e+00,-0.000000000000000000e+00,-0.000000000000000000e+00,0.000000000000000000e+00,-9.106364440917968750e+01,0.000000000000000000e+00,0.000000000000000000e+00,-7.015206336975097656e+00,1.061751327514648438e+02,7.706646442413330078e+00,0.000000000000000000e+00,-3.747583007812500000e+01,0.000000000000000000e+00,-8.244656562805175781e+00,5.840784311294555664e-01,0.000000000000000000e+00,0.000000000000000000e+00,0.000000000000000000e+00,-0.000000000000000000e+00,-6.319418430328369141e+00,0.000000000000000000e+00,-1.430987834930419922e+01,-0.000000000000000000e+00,9.195376038551330566e-01,0.000000000000000000e+00,-0.000000000000000000e+00,-3.000181913375854492e+00,0.000000000000000000e+00,2.058453559875488281e+00,0.000000000000000000e+00,-0.000000000000000000e+00,-1.577985572814941406e+01,-0.000000000000000000e+00,0.000000000000000000e+00,0.000000000000000000e+00,0.000000000000000000e+00,0.000000000000000000e+00,0.000000000000000000e+00,0.000000000000000000e+00,0.000000000000000000e+00,-1.461716365814208984e+01,-0.000000000000000000e+00,0.000000000000000000e+00,1.256118655204772949e+00,0.000000000000000000e+00,-3.974821567535400391e+00,0.000000000000000000e+00,-2.872993087768554688e+01,-0.000000000000000000e+00,0.000000000000000000e+00,1.945053696632385254e+00,-0.000000000000000000e+00,-9.936280250549316406e+00,-1.121635556221008301e+00,-2.885725975036621094e+00,-2.832914113998413086e+00,4.133822917938232422e+00,-8.201819419860839844e+00,-0.000000000000000000e+00,0.000000000000000000e+00,-2.450441360473632812e+01,-6.084344863891601562e+00,0.000000000000000000e+00,3.512440919876098633e-01,2.374600410461425781e+01,-6.310284137725830078e+00,0.000000000000000000e+00,-5.081139564514160156e+00,0.000000000000000000e+00,0.000000000000000000e+00,0.000000000000000000e+00,0.000000000000000000e+00,-0.000000000000000000e+00,0.000000000000000000e+00,-7.299169898033142090e-01,0.000000000000000000e+00,5.444646835327148438e+00,-7.802940160036087036e-02,1.660840034484863281e+01,-1.800928688049316406e+01,-0.000000000000000000e+00,-0.000000000000000000e+00,1.044672927856445312e+02,-0.000000000000000000e+00,-3.915569305419921875e+01,-1.627146339416503906e+01,0.000000000000000000e+00,-0.000000000000000000e+00,0.000000000000000000e+00,-0.000000000000000000e+00,-0.000000000000000000e+00,-0.000000000000000000e+00,-1.518968486785888672e+01,0.000000000000000000e+00,5.845135688781738281e+00,0.000000000000000000e+00,2.615278320312500000e+02,-3.136813402175903320e+00,4.306407928466796875e+01,-7.799970149993896484e+00,0.000000000000000000e+00,8.177889823913574219e+00,0.000000000000000000e+00,1.132221794128417969e+01,0.000000000000000000e+00,0.000000000000000000e+00,-0.000000000000000000e+00,-0.000000000000000000e+00,1.757340698242187500e+02,0.000000000000000000e+00,0.000000000000000000e+00,2.099969863891601562e+01,1.146985054016113281e+00,0.000000000000000000e+00,0.000000000000000000e+00,-2.892205810546875000e+01,-8.097633361816406250e+00,-2.898046970367431641e-01,0.000000000000000000e+00,-7.680673599243164062e+00,-0.000000000000000000e+00,-0.000000000000000000e+00,0.000000000000000000e+00,0.000000000000000000e+00,2.276216268539428711e+00,-1.090088486671447754e+00,0.000000000000000000e+00,-0.000000000000000000e+00,0.000000000000000000e+00,-1.713008061051368713e-02,1.203276672363281250e+02,1.556159973144531250e+01,-3.046042680740356445e+00,1.803620529174804688e+01,0.000000000000000000e+00,-1.858468246459960938e+01,6.941085052490234375e+01,1.207052516937255859e+01,-2.279972457885742188e+01,-4.637813568115234375e+00,0.000000000000000000e+00,-0.000000000000000000e+00,0.000000000000000000e+00,-6.948378562927246094e+00,-0.000000000000000000e+00,-1.683032836914062500e+02,-0.000000000000000000e+00,0.000000000000000000e+00,4.272901153564453125e+01,0.000000000000000000e+00,-3.582542240619659424e-01,0.000000000000000000e+00,-1.071264505386352539e+00,-1.697622489929199219e+01,-6.111611843109130859e+00,-9.429450035095214844e+00,-0.000000000000000000e+00
0.000000000000000000e+00,0.000000000000000000e+00,-0.000000000000000000e+00,-9.215419292449951172e-01,0.000000000000000000e+00,0.000000000000000000e+00,5.527565002441406250e+01,-1.260882091522216797e+01,-0.000000000000000000e+00,-5.214744567871093750e+00,1.551234531402587891e+01,0.000000000000000000e+00,0.000000000000000000e+00,0.000000000000000000e+00,1.364605331420898438e+01,0.000000000000000000e+00,0.000000000000000000e+00,0.000000000000000000e+00,-2.572215461730957031e+01,0.000000000000000000e+00,-0.000000000000000000e+00,-2.056985473632812500e+01,-0.000000000000000000e+00,8.658227920532226562e+00,-1.018843650817871094e+01,0.000000000000000000e+00,0.000000000000000000e+00,-0.000000000000000000e+00,-0.000000000000000000e+00,-4.548474121093750000e+01,-8.374248504638671875e+00,3.624898986816406250e+02,-0.000000000000000000e+00,-3.979707717895507812e+01,-0.000000000000000000e+00,4.993334114551544189e-01,-0.000000000000000000e+00,0.000000000000000000e+00,1.476640415191650391e+01,2.285133361816406250e+00,-4.825668334960937500e+01,-0.000000000000000000e+00,-6.840731048583984375e+01,1.646424102783203125e+01,-3.344852828979492188e+01,-0.000000000000000000e+00,-0.000000000000000000e+00,-2.102924346923828125e+00,-0.000000000000000000e+00,-4.564792251586914062e+01,1.566774139404296875e+02,0.000000000000000000e+00,0.000000000000000000e+00,-0.000000000000000000e+00,0.000000000000000000e+00,0.000000000000000000e+00,-1.383122253417968750e+02,0.000000000000000000e+00,-0.000000000000000000e+00,-0.000000000000000000e+00,0.000000000000000000e+00,0.000000000000000000e+00,0.000000000000000000e+00,2.112067937850952148e+00,0.000000000000000000e+00,-2.027591896057128906e+01,-0.000000000000000000e+00,1.240811729431152344e+01,-0.000000000000000000e+00,-7.190521240234375000e+00,0.000000000000000000e+00,0.000000000000000000e+00,-0.000000000000000000e+00,-1.378997898101806641e+01,0.000000000000000000e+00,-0.000000000000000000e+00,1.974907493591308594e+01,-0.000000000000000000e+00,-0.000000000000000000e+00,0.000000000000000000e+00,0.000000000000000000e+00,-0.000000000000000000e+00,0.000000000000000000e+00,-1.770633697509765625e+01,-0.000000000000000000e+00,2.188994407653808594e+01,0.000000000000000000e+00,0.000000000000000000e+00,-2.100800704956054688e+01,-0.000000000000000000e+00,-7.932196807861328125e+01,3.951483249664306641e+00,1.291016674041748047e+01,0.000000000000000000e+00,0.000000000000000000e+00,0.000000000000000000e+00,-0.000000000000000000e+00,0.000000000000000000e+00,9.292789459228515625e+00,-0.000000000000000000e+00,-0.000000000000000000e+00,-0.000000000000000000e+00,1.652045440673828125e+01,1.687525558471679688e+01,0.000000000000000000e+00,-0.000000000000000000e+00,0.000000000000000000e+00,0.000000000000000000e+00,-3.354402542114257812e+01,-7.827445030212402344e+00,0.000000000000000000e+00,0.000000000000000000e+00,-1.384277224540710449e+00,-0.000000000000000000e+00,-1.417996644973754883e+00,0.000000000000000000e+00,0.000000000000000000e+00,6.478448486328125000e+01,6.584060668945312500e+01,0.000000000000000000e+00,8.436473608016967773e-01,-0.000000000000000000e+00,0.000000000000000000e+00,-1.970590591430664062e+01,-0.000000000000000000e+00,2.266261482238769531e+01,-4.367156982421875000e+01,0.000000000000000000e+00,-0.000000000000000000e+00,0.000000000000000000e+00,0.000000000000000000e+00,0.000000000000000000e+00,0.000000000000000000e+00,0.000000000000000000e+00,1.499785804748535156e+01,2.216154098510742188e+01,0.000000000000000000e+00,-0.000000000000000000e+00,-7.500151157379150391e+00,-0.000000000000000000e+00,-2.619618177413940430e+00,-0.000000000000000000e+00,-0.000000000000000000e+00,1.010499382019042969e+01,0.000000000000000000e+00,-5.739710617065429688e+01,4.545083999633789062e+01,-0.000000000000000000e+00,-0.000000000000000000e+00,-0.000000000000000000e+00,-0.000000000000000000e+00,2.143846130371093750e+02,-0.000000000000000000e+00,-7.194953441619873047e+00,1.926702117919921875e+02,0.000000000000000000e+00,1.249383544921875000e+01,7.289883136749267578e+00,-0.000000000000000000e+00,0.000000000000000000e+00,-0.000000000000000000e+00,-2.260136795043945312e+01,0.000000000000000000e+00,-0.000000000000000000e+00,-0.000000000000000000e+00,-0.000000000000000000e+00,0.000000000000000000e+00,0.000000000000000000e+00,-0.000000000000000000e+00,1.093408584594726562e+01,0.000000000000000000e+00,-0.000000000000000000e+00,-0.000000000000000000e+00,-2.951048851013183594e+01,0.000000000000000000e+00,-0.000000000000000000e+00,-1.446607589721679688e+00,-3.570939302444458008e-01,0.000000000000000000e+00,-0.000000000000000000e+00,-0.000000000000000000e+00,0.000000000000000000e+00,0.000000000000000000e+00,1.049315738677978516e+01,0.000000000000000000e+00,-2.708352279663085938e+01,3.495023727416992188e+01,-1.164726867675781250e+02,-0.000000000000000000e+00,-0.000000000000000000e+00,-6.827056884765625000e+00,1.303240871429443359e+01,-1.177169084548950195e+00,-3.152995347976684570e+00,0.000000000000000000e+00,-0.000000000000000000e+00,4.953299045562744141e+00,1.706411933898925781e+01,-2.124893760681152344e+01,-4.781734466552734375e+01,-0.000000000000000000e+00,-0.000000000000000000e+00,-0.000000000000000000e+00,-1.694968461990356445e+00,0.000000000000000000e+00,2.493033905029296875e+02,-6.165060520172119141e+00,-0.000000000000000000e+00,0.000000000000000000e+00,0.000000000000000000e+00,-8.084787368774414062e+00,-0.000000000000000000e+00,2.812310695648193359e+00,-4.890408217906951904e-01,0.000000000000000000e+00,-2.740658760070800781e+00,3.840704202651977539e+00,-3.965285110473632812e+01,-6.717550277709960938e+00,-6.337274909019470215e-01,0.000000000000000000e+00,-1.035740184783935547e+01,-0.000000000000000000e+00,0.000000000000000000e+00,8.153806686401367188e+00,0.000000000000000000e+00,-2.315637817382812500e+02,-0.000000000000000000e+00,-0.000000000000000000e+00,-2.782378673553466797e+00,0.000000000000000000e+00,0.000000000000000000e+00,-0.000000000000000000e+00,-0.000000000000000000e+00,-0.000000000000000000e+00,-0.000000000000000000e+00,0.000000000000000000e+00,6.861148029565811157e-02,-5.869952774047851562e+01,0.000000000000000000e+00,-0.000000000000000000e+00,1.354925632476806641e+01,0.000000000000000000e+00,0.000000000000000000e+00,0.000000000000000000e+00,-1.403229355812072754e+00,-0.000000000000000000e+00,0.000000000000000000e+00,0.000000000000000000e+00,0.000000000000000000e+00,0.000000000000000000e+00,-1.406956958770751953e+01,-0.000000000000000000e+00,-0.000000000000000000e+00,0.000000000000000000e+00,0.000000000000000000e+00,0.000000000000000000e+00,0.000000000000000000e+00,1.412153434753417969e+01,2.400915985107421875e+02,0.000000000000000000e+00,-0.000000000000000000e+00,0.000000000000000000e+00,-1.360057926177978516e+01,0.000000000000000000e+00,0.000000000000000000e+00,0.000000000000000000e+00,-1.116914629936218262e+00,-3.003730058670043945e+00,6.266029739379882812e+01,-0.000000000000000000e+00,0.000000000000000000e+00,-1.885460615158081055e+00,2.759711265563964844e+01,0.000000000000000000e+00,0.000000000000000000e+00,0.000000000000000000e+00,-0.000000000000000000e+00,0.000000000000000000e+00,0.000000000000000000e+00,0.000000000000000000e+00,0.000000000000000000e+00,3.906455230712890625e+01,0.000000000000000000e+00,-2.438008499145507812e+01,0.000000000000000000e+00,0.000000000000000000e+00,-4.126254081726074219e+00,1.170075225830078125e+01,-0.000000000000000000e+00,-3.925698547363281250e+02,1.025053482055664062e+02,-1.847188186645507812e+01,0.000000000000000000e+00,-0.000000000000000000e+00,0.000000000000000000e+00,0.000000000000000000e+00,5.049973726272583008e-01,-0.000000000000000000e+00,0.000000000000000000e+00,0.000000000000000000e+00,0.000000000000000000e+00,-0.000000000000000000e+00,1.499870777130126953e+01,-0.000000000000000000e+00,0.000000000000000000e+00,8.695855140686035156e+00,-2.134012413024902344e+01,1.590731669651179736e-12,1.678241729736328125e+01,2.088777303695678711e+00,5.373937606811523438e+00,3.638144433498382568e-01,-0.000000000000000000e+00,0.000000000000000000e+00,0.000000000000000000e+00,0.000000000000000000e+00,-0.000000000000000000e+00,-0.000000000000000000e+00,0.000000000000000000e+00,0.000000000000000000e+00,1.446744728088378906e+01,0.000000000000000000e+00,2.230475997924804688e+01,-4.660758972167968750e+01,-0.000000000000000000e+00,-2.326341056823730469e+01,4.825360107421875000e+01,-1.996707171201705933e-01,-0.000000000000000000e+00,2.013420104980468750e+01,-0.000000000000000000e+00,0.000000000000000000e+00,-3.885800933837890625e+01,-0.000000000000000000e+00,-0.000000000000000000e+00,-1.806035919189453125e+02,0.000000000000000000e+00,6.898173522949218750e+01,0.000000000000000000e+00,0.000000000000000000e+00,0.000000000000000000e+00,-0.000000000000000000e+00,-0.000000000000000000e+00,0.000000000000000000e+00,-1.510807275772094727e+00,-0.000000000000000000e+00,2.597429847717285156e+01,-1.513558006286621094e+01,0.000000000000000000e+00,-0.000000000000000000e+00,2.693859577178955078e+00,-0.000000000000000000e+00,0.000000000000000000e+00,1.534095406532287598e+00,-0.000000000000000000e+00,-0.000000000000000000e+00,-0.000000000000000000e+00,0.000000000000000000e+00,-0.000000000000000000e+00,5.343590259552001953e+00,-3.578329801559448242e+00,-2.055541610717773438e+01,-5.268879318237304688e+01,0.000000000000000000e+00,0.000000000000000000e+00,-4.867784118652343750e+01,0.000000000000000000e+00,0.000000000000000000e+00,0.000000000000000000e+00,-1.033711814880371094e+01,0.000000000000000000e+00,0.000000000000000000e+00,-0.000000000000000000e+00,1.396486043930053711e+00,-1.523496341705322266e+01,-0.000000000000000000e+00,0.000000000000000000e+00,0.000000000000000000e+00,-4.646665096282958984e+00,-0.000000000000000000e+00,0.000000000000000000e+00,8.693449974060058594e+00,-1.642206382751464844e+01,0.000000000000000000e+00,-1.266468429565429688e+02,6.509876251220703125e-02,-0.000000000000000000e+00,0.000000000000000000e+00,-9.320502281188964844e+00,3.581399917602539062e+01,2.284728586673736572e-01,-1.510133266448974609e+00,5.302041530609130859e+00,0.000000000000000000e+00,0.000000000000000000e+00,0.000000000000000000e+00,-0.000000000000000000e+00,-0.000000000000000000e+00,-0.000000000000000000e+00,-0.000000000000000000e+00,0.000000000000000000e+00,0.000000000000000000e+00,-4.693905258178710938e+01,-3.334703207015991211e+00,1.780859947204589844e+00,-1.503011016845703125e+02,-0.000000000000000000e+00,2.280297726392745972e-01,-4.238303750753402710e-02,-1.195164084434509277e+00,-0.000000000000000000e+00,-0.000000000000000000e+00,0.000000000000000000e+00,-2.411976432800292969e+01,0.000000000000000000e+00,0.000000000000000000e+00,0.000000000000000000e+00,-0.000000000000000000e+00,7.095240116119384766e+00,0.000000000000000000e+00,-0.000000000000000000e+00,-0.000000000000000000e+00,1.535276508331298828e+01,5.893411254882812500e+01,0.000000000000000000e+00,0.000000000000000000e+00,0.000000000000000000e+00,2.165311813354492188e+00,-0.000000000000000000e+00,0.000000000000000000e+00,0.000000000000000000e+00,-0.000000000000000000e+00,-5.404163742065429688e+01,2.351476860046386719e+01,-3.249451065063476562e+01,-0.000000000000000000e+00,0.000000000000000000e+00,0.000000000000000000e+00,-0.000000000000000000e+00,0.000000000000000000e+00,-0.000000000000000000e+00,7.452801704406738281e+00,-0.000000000000000000e+00,0.000000000000000000e+00,1.276439070701599121e+00,-5.988511085510253906e+00,0.000000000000000000e+00,0.000000000000000000e+00,0.000000000000000000e+00,-1.180050373077392578e+01,0.000000000000000000e+00,-2.167729759216308594e+01,-6.033549499511718750e+01,-1.834119224548339844e+01,0.000000000000000000e+00,-7.882601261138916016e+00,-1.300679445266723633e+00,-3.309367980957031250e+02,-2.530191993713378906e+01,-0.000000000000000000e+00,-0.000000000000000000e+00,-0.000000000000000000e+00,0.000000000000000000e+00,0.000000000000000000e+00,0.000000000000000000e+00,0.000000000000000000e+00,0.000000000000000000e+00,-9.596221923828125000e+00,-2.211575927734375000e+02,-7.421480178833007812e+00,0.000000000000000000e+00,0.000000000000000000e+00,1.631840515136718750e+01,5.749757289886474609e+00,1.982644498348236084e-01,0.000000000000000000e+00,0.000000000000000000e+00,-9.969901442527770996e-01,-2.244438552856445312e+01,-0.000000000000000000e+00,0.000000000000000000e+00,0.000000000000000000e+00,-0.000000000000000000e+00,-2.388061141967773438e+01,0.000000000000000000e+00,6.262317180633544922e+00,-5.793767422437667847e-02,8.227533340454101562e+00,0.000000000000000000e+00,2.750693130493164062e+01,0.000000000000000000e+00,-0.000000000000000000e+00,0.000000000000000000e+00,-5.723469734191894531e+00,0.000000000000000000e+00,4.686510562896728516e+00,0.000000000000000000e+00,-0.000000000000000000e+00,6.826705932617187500e+01,-0.000000000000000000e+00,-0.000000000000000000e+00,-0.000000000000000000e+00,-3.298969745635986328e+00,0.000000000000000000e+00,0.000000000000000000e+00,0.000000000000000000e+00,0.000000000000000000e+00,-0.000000000000000000e+00,0.000000000000000000e+00,8.626473236083984375e+01,-0.000000000000000000e+00,-7.032662391662597656e+00,0.000000000000000000e+00,0.000000000000000000e+00,-0.000000000000000000e+00,1.409786319732666016e+01,0.000000000000000000e+00,0.000000000000000000e+00,-0.000000000000000000e+00,-0.000000000000000000e+00,0.000000000000000000e+00,-0.000000000000000000e+00,5.900920867919921875e+01,0.000000000000000000e+00,-1.640186667442321777e+00,0.000000000000000000e+00,0.000000000000000000e+00,-0.000000000000000000e+00,0.000000000000000000e+00,0.000000000000000000e+00,-0.000000000000000000e+00,0.000000000000000000e+00,-0.000000000000000000e+00,0.000000000000000000e+00,-0.000000000000000000e+00,0.000000000000000000e+00,-0.000000000000000000e+00,-1.805926361083984375e+02,-0.000000000000000000e+00,0.000000000000000000e+00,0.000000000000000000e+00,-2.029009246826171875e+02,-0.000000000000000000e+00,-4.511946201324462891e+00,-0.000000000000000000e+00,0.000000000000000000e+00,2.000816726684570312e+01,-1.434214353561401367e+00,-0.000000000000000000e+00,-0.000000000000000000e+00,-5.337307739257812500e+01,-1.525414466857910156e+00,-0.000000000000000000e+00,-0.000000000000000000e+00,1.720313644409179688e+01,-0.000000000000000000e+00,-0.000000000000000000e+00,-5.836789321899414062e+01,-4.848511219024658203e-01,-0.000000000000000000e+00,-9.355734825134277344e+00,-1.516710758209228516e+01,-5.076772212982177734e+00,0.000000000000000000e+00,1.941052703857421875e+02,9.608317375183105469e+00,6.609696149826049805e-02,2.658021748065948486e-01,-1.188831329345703125e+01,2.256984710693359375e-01,0.000000000000000000e+00,-7.824292755126953125e+01,-0.000000000000000000e+00,-0.000000000000000000e+00,2.650015354156494141e+00,0.000000000000000000e+00,0.000000000000000000e+00,-0.000000000000000000e+00,0.000000000000000000e+00,-4.394200134277343750e+01,-1.764566040039062500e+01,0.000000000000000000e+00,-0.000000000000000000e+00,0.000000000000000000e+00,-1.245638084411621094e+01,-0.000000000000000000e+00,3.119035339355468750e+01,-4.517230510711669922e+00,-1.899124860763549805e+00,-1.312071990966796875e+02,-0.000000000000000000e+00,0.000000000000000000e+00,-0.000000000000000000e+00,0.000000000000000000e+00,2.290656089782714844e+01,0.000000000000000000e+00,-0.000000000000000000e+00,0.000000000000000000e+00,0.000000000000000000e+00,-0.000000000000000000e+00,9.458012580871582031e+00,2.573377227783203125e+01,-6.795992851257324219e+00,-2.704069519042968750e+01,5.374511241912841797e+00,-0.000000000000000000e+00,0.000000000000000000e+00,5.399305343627929688e+00,-9.632844328880310059e-01,-0.000000000000000000e+00,-0.000000000000000000e+00,0.000000000000000000e+00,0.000000000000000000e+00,-0.000000000000000000e+00,0.000000000000000000e+00,-0.000000000000000000e+00,1.657766938209533691e+00,0.000000000000000000e+00,0.000000000000000000e+00,0.000000000000000000e+00,0.000000000000000000e+00,0.000000000000000000e+00,1.523732280731201172e+01,1.293076515197753906e+01,2.445808601379394531e+01,5.035012722015380859e+00,0.000000000000000000e+00,0.000000000000000000e+00,0.000000000000000000e+00,-4.900135040283203125e+00,-5.566884994506835938e+01,-0.000000000000000000e+00,-0.000000000000000000e+00,0.000000000000000000e+00,-4.379194259643554688e+01,-0.000000000000000000e+00,0.000000000000000000e+00,-0.000000000000000000e+00,-3.978860080242156982e-01,-0.000000000000000000e+00,0.000000000000000000e+00,4.183405685424804688e+01,-0.000000000000000000e+00,0.000000000000000000e+00,0.000000000000000000e+00,-0.000000000000000000e+00,0.000000000000000000e+00,0.000000000000000000e+00,0.000000000000000000e+00,-0.000000000000000000e+00,0.000000000000000000e+00,-4.625830078125000000e+01,-8.155159950256347656e+00,-0.000000000000000000e+00,0.000000000000000000e+00,1.431732177734375000e+01,0.000000000000000000e+00,9.792213439941406250e-01,0.000000000000000000e+00,0.000000000000000000e+00,-7.984877586364746094e+00,-0.000000000000000000e+00,-0.000000000000000000e+00,-7.756894826889038086e-01,-0.000000000000000000e+00,0.000000000000000000e+00,9.462369918823242188e+00,-3.612599945068359375e+01,-2.147904968261718750e+02,0.000000000000000000e+00,2.637538146972656250e+01,-0.000000000000000000e+00,-0.000000000000000000e+00,-0.000000000000000000e+00,-0.000000000000000000e+00,0.000000000000000000e+00,0.000000000000000000e+00,0.000000000000000000e+00,9.632258415222167969e+00,0.000000000000000000e+00,-0.000000000000000000e+00,-0.000000000000000000e+00,6.522816467285156250e+01,-9.245940208435058594e+00,-2.586918258666992188e+01,0.000000000000000000e+00,-3.186682760715484619e-01,-3.882925033569335938e+01,0.000000000000000000e+00,0.000000000000000000e+00,0.000000000000000000e+00,-0.000000000000000000e+00,-0.000000000000000000e+00,-0.000000000000000000e+00,0.000000000000000000e+00,-0.000000000000000000e+00,1.355657482147216797e+01,0.000000000000000000e+00,0.000000000000000000e+00,-0.000000000000000000e+00,0.000000000000000000e+00,-0.000000000000000000e+00,0.000000000000000000e+00,0.000000000000000000e+00,0.000000000000000000e+00,-0.000000000000000000e+00,0.000000000000000000e+00,0.000000000000000000e+00,0.000000000000000000e+00,0.000000000000000000e+00,0.000000000000000000e+00,-3.253806304931640625e+01,-3.214078426361083984e+00,-8.037554740905761719e+00,8.034032583236694336e-01,0.000000000000000000e+00,0.000000000000000000e+00,0.000000000000000000e+00,0.000000000000000000e+00,-4.541556167602539062e+01,1.748889160156250000e+02,0.000000000000000000e+00,-0.000000000000000000e+00,0.000000000000000000e+00,-2.220818328857421875e+01,-1.100860595703125000e+01,1.729720878601074219e+01,0.000000000000000000e+00,0.000000000000000000e+00,-0.000000000000000000e+00,-0.000000000000000000e+00,-4.182784652709960938e+01,-0.000000000000000000e+00,-4.761571884155273438e+00,-2.447332763671875000e+01,-1.914576911926269531e+01,0.000000000000000000e+00,0.000000000000000000e+00,0.000000000000000000e+00,6.088571166992187500e+01,0.000000000000000000e+00,0.000000000000000000e+00,-4.146820545196533203e+00,-5.065684127807617188e+01,1.032339954376220703e+01,-0.000000000000000000e+00,0.000000000000000000e+00,-0.000000000000000000e+00,-4.626380157470703125e+01,0.000000000000000000e+00,-1.329829025268554688e+01,-0.000000000000000000e+00,-0.000000000000000000e+00,0.000000000000000000e+00,0.000000000000000000e+00,-0.000000000000000000e+00,0.000000000000000000e+00,7.627707958221435547e+00,-0.000000000000000000e+00,-0.000000000000000000e+00,8.883423805236816406e+00,3.156550788879394531e+01,1.457492256164550781e+01,-0.000000000000000000e+00,2.803626823425292969e+01,0.000000000000000000e+00,-2.099864959716796875e+01,4.105702400207519531e+00,0.000000000000000000e+00,0.000000000000000000e+00,0.000000000000000000e+00,0.000000000000000000e+00,-3.087986373901367188e+01,0.000000000000000000e+00,0.000000000000000000e+00,0.000000000000000000e+00,-9.960787200927734375e+01
0.000000000000000000e+00,0.000000000000000000e+00,1.173843669891357422e+01,-0.000000000000000000e+00,0.000000000000000000e+00,0.000000000000000000e+00,-0.000000000000000000e+00,-2.544006347656250000e+00,7.396092891693115234e+00,0.000000000000000000e+00,0.000000000000000000e+00,-5.113840866088867188e+01,0.000000000000000000e+00,0.000000000000000000e+00,3.988397598266601562e+00,2.846260368824005127e-01,0.000000000000000000e+00,-6.276937484741210938e+01,1.252998828887939453e+01,-5.916637420654296875e+01,0.000000000000000000e+00,-0.000000000000000000e+00,4.765194320678710938e+01,0.000000000000000000e+00,-4.221575736999511719e+00,6.573846435546875000e+01,-0.000000000000000000e+00,0.000000000000000000e+00,-0.000000000000000000e+00,0.000000000000000000e+00,-5.069572830200195312e+01,-2.937073945999145508e+00,-0.000000000000000000e+00,-4.509313964843750000e+01,0.000000000000000000e+00,0.000000000000000000e+00,0.000000000000000000e+00,0.000000000000000000e+00,3.647243976593017578e+00,0.000000000000000000e+00,7.427763366699218750e+01,0.000000000000000000e+00,6.105086207389831543e-02,1.334512329101562500e+01,0.000000000000000000e+00,-0.000000000000000000e+00,-1.666690826416015625e+01,-2.452783733606338501e-01,0.000000000000000000e+00,-4.444623184204101562e+01,1.004281082153320312e+02,-8.995029926300048828e-01,-5.910446047782897949e-01,0.000000000000000000e+00,4.670091629028320312e+00,-2.246251678466796875e+01,-3.448094177246093750e+02,-8.590902328491210938e+00,-1.788533401489257812e+01,0.000000000000000000e+00,0.000000000000000000e+00,0.000000000000000000e+00,-6.849845409393310547e+00,-6.573186874389648438e+00,0.000000000000000000e+00,0.000000000000000000e+00,-2.178160285949707031e+01,0.000000000000000000e+00,-1.743033599853515625e+01,-5.986890792846679688e+01,3.640525436401367188e+01,-6.544241905212402344e-01,-0.000000000000000000e+00,-1.413380718231201172e+01,1.265002670288085938e+02,-4.550585556030273438e+01,-0.000000000000000000e+00,-1.008090057373046875e+02,0.000000000000000000e+00,0.000000000000000000e+00,-1.304036140441894531e+00,-0.000000000000000000e+00,0.000000000000000000e+00,3.469215774536132812e+01,-2.924444198608398438e+01,0.000000000000000000e+00,0.000000000000000000e+00,0.000000000000000000e+00,0.000000000000000000e+00,-0.000000000000000000e+00,-0.000000000000000000e+00,0.000000000000000000e+00,-1.672549057006835938e+01,0.000000000000000000e+00,0.000000000000000000e+00,0.000000000000000000e+00,-2.721155357360839844e+01,-4.371924400329589844e+00,-0.000000000000000000e+00,0.000000000000000000e+00,-1.008901596069335938e+02,-0.000000000000000000e+00,2.354516448974609375e+02,0.000000000000000000e+00,0.000000000000000000e+00,-0.000000000000000000e+00,0.000000000000000000e+00,-0.000000000000000000e+00,0.000000000000000000e+00,0.000000000000000000e+00,3.454217910766601562e+01,-4.076759719848632812e+01,7.372066974639892578e+00,-0.000000000000000000e+00,-1.065587387084960938e+02,-0.000000000000000000e+00,-0.000000000000000000e+00,3.963732604980468750e+02,1.025240631103515625e+02,-1.973811388015747070e+00,2.010838508605957031e+01,-4.690883636474609375e+01,0.000000000000000000e+00,-3.275560913085937500e+02,-0.000000000000000000e+00,0.000000000000000000e+00,1.520180988311767578e+01,4.394842529296875000e+01,-0.000000000000000000e+00,0.000000000000000000e+00,6.979902648925781250e+01,2.401442146301269531e+01,0.000000000000000000e+00,1.790279769897460938e+01,1.097043895721435547e+01,-0.000000000000000000e+00,0.000000000000000000e+00,6.571328639984130859e+00,0.000000000000000000e+00,-3.036357116699218750e+01,0.000000000000000000e+00,-1.454938354492187500e+02,-1.147278137207031250e+02,-1.084866046905517578e+00,0.000000000000000000e+00,-0.000000000000000000e+00,0.000000000000000000e+00,-1.068386840820312500e+01,-4.387344360351562500e+01,0.000000000000000000e+00,2.491186904907226562e+01,2.008206176757812500e+01,-0.000000000000000000e+00,-0.000000000000000000e+00,1.703145294189453125e+02,-0.000000000000000000e+00,3.675253152847290039e+00,4.519764099121093750e+02,0.000000000000000000e+00,-2.851305770874023438e+01,3.063392829895019531e+01,-1.590648040771484375e+02,0.000000000000000000e+00,-3.194509124755859375e+01,-0.000000000000000000e+00,0.000000000000000000e+00,0.000000000000000000e+00,9.776214599609375000e+01,0.000000000000000000e+00,0.000000000000000000e+00,-0.000000000000000000e+00,0.000000000000000000e+00,-4.408742904663085938e+01,0.000000000000000000e+00,-0.000000000000000000e+00,-0.000000000000000000e+00,1.316368865966796875e+01,-1.219579887390136719e+01,5.650740814208984375e+01,-1.104225873947143555e+00,0.000000000000000000e+00,0.000000000000000000e+00,0.000000000000000000e+00,0.000000000000000000e+00,-5.547580718994140625e+01,-5.724462890625000000e+01,5.043450832366943359e+00,-0.000000000000000000e+00,0.000000000000000000e+00,-0.000000000000000000e+00,0.000000000000000000e+00,0.000000000000000000e+00,0.000000000000000000e+00,0.000000000000000000e+00,8.050679206848144531e+00,0.000000000000000000e+00,0.000000000000000000e+00,3.311447143554687500e+00,3.386028528213500977e+00,-7.998054504394531250e+00,0.000000000000000000e+00,-0.000000000000000000e+00,0.000000000000000000e+00,-0.000000000000000000e+00,0.000000000000000000e+00,-0.000000000000000000e+00,-0.000000000000000000e+00,-0.000000000000000000e+00,0.000000000000000000e+00,1.541101694107055664e+00,0.000000000000000000e+00,-0.000000000000000000e+00,-2.784614944458007812e+01,0.000000000000000000e+00,0.000000000000000000e+00,0.000000000000000000e+00,0.000000000000000000e+00,-0.000000000000000000e+00,-1.959688782691955566e+00,1.928852081298828125e+01,0.000000000000000000e+00,-1.644430923461914062e+01,-0.000000000000000000e+00,0.000000000000000000e+00,2.965496540069580078e+00,-3.223302459716796875e+01,-3.464569702148437500e+02,6.011040687561035156e+00,0.000000000000000000e+00,1.220339488983154297e+01,0.000000000000000000e+00,2.490026473999023438e+01,1.110866165161132812e+01,0.000000000000000000e+00,-1.934265613555908203e+00,0.000000000000000000e+00,-0.000000000000000000e+00,-3.062744379043579102e+00,-0.000000000000000000e+00,2.312502288818359375e+01,1.748687505722045898e+00,-2.031803131103515625e+01,3.553237152099609375e+01,0.000000000000000000e+00,0.000000000000000000e+00,0.000000000000000000e+00,-0.000000000000000000e+00,-9.871217727661132812e+00,0.000000000000000000e+00,0.000000000000000000e+00,-3.583327865600585938e+01,-2.524434328079223633e+00,-2.852433471679687500e+02,-0.000000000000000000e+00,-0.000000000000000000e+00,0.000000000000000000e+00,0.000000000000000000e+00,-0.000000000000000000e+00,0.000000000000000000e+00,-0.000000000000000000e+00,0.000000000000000000e+00,-0.000000000000000000e+00,0.000000000000000000e+00,-1.836878776550292969e+01,-0.000000000000000000e+00,0.000000000000000000e+00,0.000000000000000000e+00,-0.000000000000000000e+00,1.388508415222167969e+01,0.000000000000000000e+00,0.000000000000000000e+00,-1.783158111572265625e+01,-0.000000000000000000e+00,0.000000000000000000e+00,-5.486023330688476562e+01,0.000000000000000000e+00,0.000000000000000000e+00,-2.273016052246093750e+02,0.000000000000000000e+00,3.255698394775390625e+01,0.000000000000000000e+00,0.000000000000000000e+00,2.772660827636718750e+01,-6.624977588653564453e+00,0.000000000000000000e+00,2.257755470275878906e+01,0.000000000000000000e+00,0.000000000000000000e+00,0.000000000000000000e+00,0.000000000000000000e+00,-2.891769027709960938e+01,2.600191040039062500e+02,0.000000000000000000e+00,0.000000000000000000e+00,-0.000000000000000000e+00,0.000000000000000000e+00,-1.355005073547363281e+01,-2.687527656555175781e+00,-1.814753562211990356e-01,0.000000000000000000e+00,0.000000000000000000e+00,0.000000000000000000e+00,2.698896980285644531e+01,-0.000000000000000000e+00,-0.000000000000000000e+00,0.000000000000000000e+00,-0.000000000000000000e+00,-2.386959838867187500e+01,0.000000000000000000e+00,0.000000000000000000e+00,-0.000000000000000000e+00,-0.000000000000000000e+00,0.000000000000000000e+00,-0.000000000000000000e+00,0.000000000000000000e+00,-5.008114814758300781e+00,-0.000000000000000000e+00,-3.463341522216796875e+01,-0.000000000000000000e+00,-0.000000000000000000e+00,0.000000000000000000e+00,0.000000000000000000e+00,0.000000000000000000e+00,0.000000000000000000e+00,-2.232931518554687500e+01,0.000000000000000000e+00,0.000000000000000000e+00,6.700183105468750000e+01,0.000000000000000000e+00,2.294809150695800781e+01,0.000000000000000000e+00,0.000000000000000000e+00,-2.140366705134510994e-03,-4.888201522827148438e+01,-0.000000000000000000e+00,-1.586273193359375000e+02,-0.000000000000000000e+00,-2.150249290466308594e+01,0.000000000000000000e+00,1.687527618408203125e+02,-0.000000000000000000e+00,0.000000000000000000e+00,-0.000000000000000000e+00,-0.000000000000000000e+00,-0.000000000000000000e+00,-0.000000000000000000e+00,-0.000000000000000000e+00,-4.906106948852539062e+00,-5.584700775146484375e+01,0.000000000000000000e+00,-1.193913116455078125e+02,2.583011436462402344e+01,-0.000000000000000000e+00,0.000000000000000000e+00,0.000000000000000000e+00,0.000000000000000000e+00,-0.000000000000000000e+00,-5.768924713134765625e+00,0.000000000000000000e+00,-0.000000000000000000e+00,-0.000000000000000000e+00,-2.649702072143554688e+01,-0.000000000000000000e+00,-0.000000000000000000e+00,7.801132965087890625e+01,0.000000000000000000e+00,-1.458245849609375000e+01,0.000000000000000000e+00,0.000000000000000000e+00,-1.756836652755737305e+00,0.000000000000000000e+00,0.000000000000000000e+00,0.000000000000000000e+00,0.000000000000000000e+00,1.330825614929199219e+01,0.000000000000000000e+00,-0.000000000000000000e+00,-4.592918777465820312e+01,0.000000000000000000e+00,-4.351360321044921875e+01,0.000000000000000000e+00,0.000000000000000000e+00,4.722259902954101562e+01,-2.983238029479980469e+01,0.000000000000000000e+00,-8.286474609375000000e+01,0.000000000000000000e+00,0.000000000000000000e+00,4.395056915283203125e+01,-5.750329017639160156e+00,7.540790557861328125e+01,4.448730850219726562e+01,4.761364746093750000e+01,0.000000000000000000e+00,-1.899264831542968750e+02,0.000000000000000000e+00,0.000000000000000000e+00,-0.000000000000000000e+00,-1.353407096862792969e+01,0.000000000000000000e+00,0.000000000000000000e+00,-0.000000000000000000e+00,0.000000000000000000e+00,-5.744668197631835938e+01,-4.425895690917968750e+00,0.000000000000000000e+00,-1.154882507324218750e+02,-0.000000000000000000e+00,6.516326904296875000e+00,-0.000000000000000000e+00,0.000000000000000000e+00,-0.000000000000000000e+00,0.000000000000000000e+00,-0.000000000000000000e+00,0.000000000000000000e+00,0.000000000000000000e+00,2.470205910503864288e-02,-0.000000000000000000e+00,0.000000000000000000e+00,1.168976879119873047e+01,0.000000000000000000e+00,-0.000000000000000000e+00,0.000000000000000000e+00,0.000000000000000000e+00,0.000000000000000000e+00,1.679875488281250000e+02,0.000000000000000000e+00,0.000000000000000000e+00,0.000000000000000000e+00,-2.613679122924804688e+01,-7.023071289062500000e+00,0.000000000000000000e+00,1.970177650451660156e+01,6.551061248779296875e+01,-2.196999931335449219e+01,7.678966522216796875e-01,-0.000000000000000000e+00,-0.000000000000000000e+00,0.000000000000000000e+00,0.000000000000000000e+00,0.000000000000000000e+00,0.000000000000000000e+00,0.000000000000000000e+00,-3.175384902954101562e+01,0.000000000000000000e+00,0.000000000000000000e+00,4.623912048339843750e+01,0.000000000000000000e+00,-0.000000000000000000e+00,-0.000000000000000000e+00,-1.907075119018554688e+01,-0.000000000000000000e+00,-0.000000000000000000e+00,-0.000000000000000000e+00,0.000000000000000000e+00,0.000000000000000000e+00,0.000000000000000000e+00,4.881778717041015625e+00,-0.000000000000000000e+00,0.000000000000000000e+00,-0.000000000000000000e+00,8.881710052490234375e+00,-2.180610084533691406e+01,0.000000000000000000e+00,1.607388458251953125e+02,-0.000000000000000000e+00,0.000000000000000000e+00,0.000000000000000000e+00,-0.000000000000000000e+00,-3.493811416625976562e+01,-0.000000000000000000e+00,0.000000000000000000e+00,0.000000000000000000e+00,4.742597579956054688e+01,5.341882705688476562e+01,0.000000000000000000e+00,1.664062957763671875e+02,0.000000000000000000e+00,4.559627056121826172e+00,-1.214644718170166016e+01,-0.000000000000000000e+00,-0.000000000000000000e+00,-0.000000000000000000e+00,-0.000000000000000000e+00,-2.326521492004394531e+01,0.000000000000000000e+00,-0.000000000000000000e+00,0.000000000000000000e+00,1.919591140747070312e+01,4.399354934692382812e+01,-1.070715045928955078e+01,0.000000000000000000e+00,-8.323046875000000000e+01,-0.000000000000000000e+00,-0.000000000000000000e+00,0.000000000000000000e+00,0.000000000000000000e+00,2.566595077514648438e+00,-0.000000000000000000e+00,0.000000000000000000e+00,0.000000000000000000e+00,-0.000000000000000000e+00,-3.243808746337890625e+01,-0.000000000000000000e+00,0.000000000000000000e+00,0.000000000000000000e+00,0.000000000000000000e+00,3.640240669250488281e+00,-2.115273857116699219e+01,-0.000000000000000000e+00,0.000000000000000000e+00,-0.000000000000000000e+00,1.265041542053222656e+01,0.000000000000000000e+00,0.000000000000000000e+00,-0.000000000000000000e+00,0.000000000000000000e+00,-0.000000000000000000e+00,0.000000000000000000e+00,-0.000000000000000000e+00,0.000000000000000000e+00,7.046252441406250000e+01,-1.841284036636352539e+00,4.569397888183593750e+02,0.000000000000000000e+00,-0.000000000000000000e+00,0.000000000000000000e+00,3.089294433593750000e-01,-0.000000000000000000e+00,-0.000000000000000000e+00,1.056352901458740234e+01,0.000000000000000000e+00,0.000000000000000000e+00,0.000000000000000000e+00,3.764314174652099609e+00,-0.000000000000000000e+00,0.000000000000000000e+00,-5.353257751464843750e+01,-0.000000000000000000e+00,-3.119416713714599609e+00,0.000000000000000000e+00,-0.000000000000000000e+00,0.000000000000000000e+00,0.000000000000000000e+00,4.259975433349609375e+01,0.000000000000000000e+00,0.000000000000000000e+00,-1.275376281738281250e+02,-1.093867301940917969e+01,-1.407546997070312500e+02,-0.000000000000000000e+00,-7.935764312744140625e+00,-0.000000000000000000e+00,0.000000000000000000e+00,0.000000000000000000e+00,0.000000000000000000e+00,-0.000000000000000000e+00,1.061984539031982422e+01,1.751129627227783203e+00,-0.000000000000000000e+00,-8.349038124084472656e+00,6.853021240234375000e+01,-2.870702209472656250e+02,-0.000000000000000000e+00,0.000000000000000000e+00,0.000000000000000000e+00,-0.000000000000000000e+00,0.000000000000000000e+00,1.612619781494140625e+02,-3.413489580154418945e+00,-2.310254859924316406e+01,1.425598239898681641e+01,-0.000000000000000000e+00,0.000000000000000000e+00,-0.000000000000000000e+00,-4.138893127441406250e+00,0.000000000000000000e+00,-0.000000000000000000e+00,-3.074066543579101562e+01,-0.000000000000000000e+00,0.000000000000000000e+00,-1.293885803222656250e+02,9.829478454589843750e+01,-0.000000000000000000e+00,0.000000000000000000e+00,3.489579677581787109e+00,-1.178320312500000000e+01,2.990256881713867188e+01,-1.017172145843505859e+01,-0.000000000000000000e+00,-7.011074829101562500e+01,0.000000000000000000e+00,-0.000000000000000000e+00,-0.000000000000000000e+00,-0.000000000000000000e+00,0.000000000000000000e+00,0.000000000000000000e+00,5.098677635192871094e+00,0.000000000000000000e+00,-0.000000000000000000e+00,0.000000000000000000e+00,-1.598480796813964844e+01,1.478489398956298828e+00,2.600660920143127441e-01,0.000000000000000000e+00,0.000000000000000000e+00,0.000000000000000000e+00,-1.728208541870117188e+01,-0.000000000000000000e+00,-0.000000000000000000e+00,-6.211123275756835938e+01,-0.000000000000000000e+00,0.000000000000000000e+00,3.177766227722167969e+01,2.665880393981933594e+01,1.302601146697998047e+01,0.000000000000000000e+00,-1.734863281250000000e+01,0.000000000000000000e+00,0.000000000000000000e+00,-1.599246025085449219e+00,2.725093841552734375e+01,0.000000000000000000e+00,5.934797286987304688e+00,-3.871411800384521484e+00,0.000000000000000000e+00,-6.423165798187255859e+00,1.219037151336669922e+01,0.000000000000000000e+00,0.000000000000000000e+00,0.000000000000000000e+00,1.482344985008239746e+00,0.000000000000000000e+00,-0.000000000000000000e+00,0.000000000000000000e+00,-6.278240680694580078e+00,-0.000000000000000000e+00,0.000000000000000000e+00,0.000000000000000000e+00,-0.000000000000000000e+00,-0.000000000000000000e+00,-0.000000000000000000e+00,-0.000000000000000000e+00,-0.000000000000000000e+00,0.000000000000000000e+00,0.000000000000000000e+00,2.013942450284957886e-01,-0.000000000000000000e+00,-0.000000000000000000e+00,6.952175140380859375e+01,1.515959835052490234e+01,0.000000000000000000e+00,-1.584411010742187500e+02,-1.371620941162109375e+01,0.000000000000000000e+00,0.000000000000000000e+00,0.000000000000000000e+00,-2.058297424316406250e+02,8.733268737792968750e+00,4.280135345458984375e+01,0.000000000000000000e+00,0.000000000000000000e+00,0.000000000000000000e+00,0.000000000000000000e+00,-3.764922142028808594e+00,5.780394077301025391e-01,0.000000000000000000e+00,0.000000000000000000e+00,0.000000000000000000e+00,-1.333182373046875000e+02,0.000000000000000000e+00,-1.408873748779296875e+01,-0.000000000000000000e+00,-0.000000000000000000e+00,0.000000000000000000e+00,-0.000000000000000000e+00,0.000000000000000000e+00,0.000000000000000000e+00,1.527652931213378906e+01,-6.889605045318603516e+00,-0.000000000000000000e+00,0.000000000000000000e+00,-0.000000000000000000e+00,0.000000000000000000e+00,2.969595527648925781e+01,1.673745727539062500e+01,-0.000000000000000000e+00,1.173147439956665039e+00,0.000000000000000000e+00,0.000000000000000000e+00,-0.000000000000000000e+00,0.000000000000000000e+00,-3.307564163208007812e+01,-0.000000000000000000e+00,-1.133568477630615234e+01,0.000000000000000000e+00,-0.000000000000000000e+00,-0.000000000000000000e+00,-0.000000000000000000e+00,-1.718066406250000000e+01,-0.000000000000000000e+00,2.675704479217529297e+00,-1.522041893005371094e+01,2.769475097656250000e+02,0.000000000000000000e+00,2.659845733642578125e+01,-0.000000000000000000e+00,0.000000000000000000e+00,-0.000000000000000000e+00,0.000000000000000000e+00,2.166735458374023438e+01,0.000000000000000000e+00,-0.000000000000000000e+00,-4.168535232543945312e+00,-4.431377410888671875e+00,7.093043327331542969e+00,-4.633425140380859375e+01,0.000000000000000000e+00,5.400440979003906250e+01,-5.292417144775390625e+01,-1.053769836425781250e+02,0.000000000000000000e+00,3.920869064331054688e+01,-0.000000000000000000e+00,-3.281129455566406250e+01,1.777940940856933594e+01,1.537616539001464844e+01,6.315950012207031250e+01,0.000000000000000000e+00,-0.000000000000000000e+00,-6.176069641113281250e+01,-0.000000000000000000e+00,-7.220504760742187500e+01,0.000000000000000000e+00,-9.383809089660644531e+00,-1.452853240966796875e+02,0.000000000000000000e+00,0.000000000000000000e+00,-0.000000000000000000e+00,0.000000000000000000e+00,0.000000000000000000e+00,0.000000000000000000e+00,0.000000000000000000e+00,-3.251539611816406250e+01,-0.000000000000000000e+00,-8.312723159790039062e+00,0.000000000000000000e+00,0.000000000000000000e+00,-0.000000000000000000e+00,0.000000000000000000e+00,0.000000000000000000e+00,1.629591369628906250e+02,0.000000000000000000e+00,-4.930392074584960938e+01,0.000000000000000000e+00,0.000000000000000000e+00,-0.000000000000000000e+00,-0.000000000000000000e+00,-5.992350006103515625e+01,0.000000000000000000e+00,0.000000000000000000e+00,-0.000000000000000000e+00,0.000000000000000000e+00,-3.145298105664551258e-04,-0.000000000000000000e+00,4.473399353027343750e+01,0.000000000000000000e+00,-2.889134979248046875e+01,-9.432834625244140625e+00,-5.612606811523437500e+01,0.000000000000000000e+00,2.787187500000000000e+02,0.000000000000000000e+00,-3.137580680847167969e+01,0.000000000000000000e+00,8.686631011962890625e+01,0.000000000000000000e+00,0.000000000000000000e+00
0.000000000000000000e+00,-0.000000000000000000e+00,-0.000000000000000000e+00,0.000000000000000000e+00,0.000000000000000000e+00,0.000000000000000000e+00,-0.000000000000000000e+00,0.000000000000000000e+00,0.000000000000000000e+00,0.000000000000000000e+00,-0.000000000000000000e+00,-3.273624801635742188e+01,0.000000000000000000e+00,0.000000000000000000e+00,0.000000000000000000e+00,-1.563770651817321777e+00,-2.004611206054687500e+01,8.972186088562011719e+00,9.291483879089355469e+00,0.000000000000000000e+00,-0.000000000000000000e+00,-7.609891891479492188e+00,-0.000000000000000000e+00,-0.000000000000000000e+00,5.996407318115234375e+01,0.000000000000000000e+00,-0.000000000000000000e+00,-0.000000000000000000e+00,2.667204856872558594e+00,-2.360258579254150391e+00,-0.000000000000000000e+00,3.298036193847656250e+01,-0.000000000000000000e+00,-0.000000000000000000e+00,0.000000000000000000e+00,2.172178077697753906e+01,-0.000000000000000000e+00,7.250293344259262085e-02,1.482895851135253906e+01,0.000000000000000000e+00,-0.000000000000000000e+00,0.000000000000000000e+00,0.000000000000000000e+00,0.000000000000000000e+00,0.000000000000000000e+00,-0.000000000000000000e+00,0.000000000000000000e+00,-4.249128818511962891e+00,3.318583679199218750e+01,-3.459468841552734375e+01,5.785943984985351562e+00,-1.061451792716979980e+00,-1.484919357299804688e+01,0.000000000000000000e+00,9.660423398017883301e-01,0.000000000000000000e+00,-1.429592418670654297e+01,-0.000000000000000000e+00,1.675781980156898499e-02,7.491905212402343750e+00,-9.684239387512207031e+00,-0.000000000000000000e+00,0.000000000000000000e+00,-5.458194351196289062e+01,0.000000000000000000e+00,0.000000000000000000e+00,-0.000000000000000000e+00,-0.000000000000000000e+00,-0.000000000000000000e+00,0.000000000000000000e+00,1.508240509033203125e+01,0.000000000000000000e+00,-0.000000000000000000e+00,-2.654347801208496094e+01,0.000000000000000000e+00,-2.058728408813476562e+01,2.717743110656738281e+01,1.596841239929199219e+01,0.000000000000000000e+00,3.048172569274902344e+01,-3.073688149452209473e-01,4.309171295166015625e+01,0.000000000000000000e+00,-2.170336341857910156e+01,0.000000000000000000e+00,0.000000000000000000e+00,-3.930671691894531250e+01,-1.667210197448730469e+01,1.138247299194335938e+02,0.000000000000000000e+00,0.000000000000000000e+00,0.000000000000000000e+00,-4.288913249969482422e+00,1.025881385803222656e+01,0.000000000000000000e+00,8.818428039550781250e+00,-0.000000000000000000e+00,0.000000000000000000e+00,1.625682449340820312e+01,-5.827083206176757812e+01,-2.257344245910644531e+01,0.000000000000000000e+00,4.182032775878906250e+01,-9.795317053794860840e-02,3.613491439819335938e+01,-0.000000000000000000e+00,1.936856651306152344e+01,-0.000000000000000000e+00,-2.592489242553710938e+01,0.000000000000000000e+00,-2.024878883361816406e+01,-0.000000000000000000e+00,2.957911014556884766e+00,-0.000000000000000000e+00,0.000000000000000000e+00,0.000000000000000000e+00,0.000000000000000000e+00,6.520502567291259766e-01,-0.000000000000000000e+00,1.520405578613281250e+02,-5.697417736053466797e+00,-3.417491912841796875e+01,0.000000000000000000e+00,-2.229536285400390625e+02,0.000000000000000000e+00,0.000000000000000000e+00,-2.698395252227783203e+00,0.000000000000000000e+00,0.000000000000000000e+00,0.000000000000000000e+00,0.000000000000000000e+00,-0.000000000000000000e+00,0.000000000000000000e+00,-0.000000000000000000e+00,0.000000000000000000e+00,-0.000000000000000000e+00,-0.000000000000000000e+00,0.000000000000000000e+00,-4.626511764526367188e+01,-0.000000000000000000e+00,-0.000000000000000000e+00,0.000000000000000000e+00,-0.000000000000000000e+00,-4.545961856842041016e+00,0.000000000000000000e+00,-0.000000000000000000e+00,2.900866508483886719e+00,-1.755889773368835449e+00,1.346346092224121094e+01,-1.979221552610397339e-01,-0.000000000000000000e+00,0.000000000000000000e+00,-0.000000000000000000e+00,0.000000000000000000e+00,0.000000000000000000e+00,2.356912231445312500e+01,0.000000000000000000e+00,2.713145446777343750e+02,-0.000000000000000000e+00,0.000000000000000000e+00,1.861704063415527344e+01,-0.000000000000000000e+00,4.817948913574218750e+01,0.000000000000000000e+00,0.000000000000000000e+00,0.000000000000000000e+00,4.767520141601562500e+01,4.676686763763427734e+00,0.000000000000000000e+00,0.000000000000000000e+00,3.077459144592285156e+01,-5.983419418334960938e-01,-0.000000000000000000e+00,0.000000000000000000e+00,1.533802032470703125e+01,-1.619262542724609375e+02,-2.100288391113281250e+00,-3.505814075469970703e+00,1.221998500823974609e+01,0.000000000000000000e+00,0.000000000000000000e+00,-0.000000000000000000e+00,-0.000000000000000000e+00,-2.612033081054687500e+01,1.360961246490478516e+01,-0.000000000000000000e+00,0.000000000000000000e+00,-1.744461631774902344e+01,0.000000000000000000e+00,-0.000000000000000000e+00,-0.000000000000000000e+00,-6.057769393920898438e+01,0.000000000000000000e+00,-0.000000000000000000e+00,-0.000000000000000000e+00,-0.000000000000000000e+00,-0.000000000000000000e+00,-0.000000000000000000e+00,2.180334281921386719e+01,-3.497143554687500000e+01,0.000000000000000000e+00,-1.908604741096496582e+00,9.517270088195800781e+00,0.000000000000000000e+00,0.000000000000000000e+00,8.545318603515625000e+00,-2.271949386596679688e+01,-1.950829863548278809e+00,0.000000000000000000e+00,0.000000000000000000e+00,1.815350723266601562e+01,0.000000000000000000e+00,-2.012073898315429688e+01,0.000000000000000000e+00,1.538036346435546875e+01,0.000000000000000000e+00,-4.364848136901855469e-01,3.029074478149414062e+01,-0.000000000000000000e+00,2.118982887268066406e+01,2.523560047149658203e+00,4.278298187255859375e+01,0.000000000000000000e+00,0.000000000000000000e+00,3.075559234619140625e+01,-0.000000000000000000e+00,2.344928169250488281e+01,-3.642910003662109375e+01,-8.201391601562500000e+01,0.000000000000000000e+00,0.000000000000000000e+00,5.116654205322265625e+01,0.000000000000000000e+00,-0.000000000000000000e+00,0.000000000000000000e+00,0.000000000000000000e+00,-0.000000000000000000e+00,-0.000000000000000000e+00,-4.402052879333496094e+00,1.333459568023681641e+01,0.000000000000000000e+00,1.386619186401367188e+01,-0.000000000000000000e+00,0.000000000000000000e+00,-1.347578811645507812e+01,0.000000000000000000e+00,-0.000000000000000000e+00,-0.000000000000000000e+00,0.000000000000000000e+00,-0.000000000000000000e+00,-0.000000000000000000e+00,-1.213122844696044922e+01,-0.000000000000000000e+00,6.665256500244140625e+00,0.000000000000000000e+00,-5.050190448760986328e+00,3.121706771850585938e+01,0.000000000000000000e+00,-2.129595184326171875e+01,0.000000000000000000e+00,3.622271728515625000e+01,-0.000000000000000000e+00,2.280490493774414062e+01,-1.058373451232910156e+00,0.000000000000000000e+00,-0.000000000000000000e+00,0.000000000000000000e+00,2.676553279161453247e-02,-1.356299400329589844e+01,6.535464477539062500e+01,0.000000000000000000e+00,0.000000000000000000e+00,-0.000000000000000000e+00,-0.000000000000000000e+00,0.000000000000000000e+00,0.000000000000000000e+00,0.000000000000000000e+00,-0.000000000000000000e+00,-0.000000000000000000e+00,0.000000000000000000e+00,-0.000000000000000000e+00,0.000000000000000000e+00,-0.000000000000000000e+00,0.000000000000000000e+00,4.255513381958007812e+01,-2.546209096908569336e+00,0.000000000000000000e+00,-7.277028560638427734e-01,1.444543838500976562e+00,0.000000000000000000e+00,0.000000000000000000e+00,0.000000000000000000e+00,-0.000000000000000000e+00,0.000000000000000000e+00,-0.000000000000000000e+00,-2.469953155517578125e+01,-2.462067222595214844e+01,-4.410588145256042480e-01,-0.000000000000000000e+00,0.000000000000000000e+00,0.000000000000000000e+00,0.000000000000000000e+00,0.000000000000000000e+00,-0.000000000000000000e+00,-0.000000000000000000e+00,-1.646173095703125000e+01,-0.000000000000000000e+00,5.598995208740234375e+00,1.452368669774273258e-09,2.008065605163574219e+01,-0.000000000000000000e+00,-7.950576782226562500e+01,0.000000000000000000e+00,-0.000000000000000000e+00,2.240018129348754883e+00,-3.914640426635742188e+01,-0.000000000000000000e+00,5.109986305236816406e+00,-0.000000000000000000e+00,-0.000000000000000000e+00,-1.602676963806152344e+01,-6.256980895996093750e-01,4.995513439178466797e+00,0.000000000000000000e+00,0.000000000000000000e+00,0.000000000000000000e+00,0.000000000000000000e+00,-1.311761932373046875e+02,4.416890621185302734e+00,1.686105251312255859e+00,4.503906071186065674e-01,0.000000000000000000e+00,0.000000000000000000e+00,-2.232534980773925781e+01,-1.137309551239013672e+01,-1.295794582366943359e+01,-4.121552944183349609e+00,-5.664186000823974609e+00,1.351661586761474609e+01,0.000000000000000000e+00,0.000000000000000000e+00,0.000000000000000000e+00,1.218162155151367188e+01,0.000000000000000000e+00,-0.000000000000000000e+00,0.000000000000000000e+00,-2.629426240921020508e+00,0.000000000000000000e+00,-1.222372722625732422e+01,0.000000000000000000e+00,-1.157993087768554688e+02,-0.000000000000000000e+00,-8.335433197021484375e+01,0.000000000000000000e+00,-0.000000000000000000e+00,-7.935513973236083984e+00,-4.908082008361816406e+00,0.000000000000000000e+00,0.000000000000000000e+00,-0.000000000000000000e+00,-0.000000000000000000e+00,-0.000000000000000000e+00,0.000000000000000000e+00,-0.000000000000000000e+00,-0.000000000000000000e+00,0.000000000000000000e+00,0.000000000000000000e+00,-3.000761222839355469e+01,0.000000000000000000e+00,4.497117614746093750e+01,0.000000000000000000e+00,2.203505325317382812e+01,0.000000000000000000e+00,-5.087629333138465881e-02,0.000000000000000000e+00,0.000000000000000000e+00,-0.000000000000000000e+00,1.354560470581054688e+01,0.000000000000000000e+00,1.259367561340332031e+01,0.000000000000000000e+00,0.000000000000000000e+00,0.000000000000000000e+00,-0.000000000000000000e+00,0.000000000000000000e+00,2.163694381713867188e+00,5.196786499023437500e+01,-9.408922791481018066e-01,-0.000000000000000000e+00,-0.000000000000000000e+00,1.223834419250488281e+01,0.000000000000000000e+00,0.000000000000000000e+00,1.868730545043945312e+01,0.000000000000000000e+00,0.000000000000000000e+00,0.000000000000000000e+00,0.000000000000000000e+00,0.000000000000000000e+00,-3.156186294555664062e+01,0.000000000000000000e+00,0.000000000000000000e+00,-0.000000000000000000e+00,-1.756798934936523438e+01,-0.000000000000000000e+00,0.000000000000000000e+00,-1.134237747192382812e+02,-5.367483139038085938e+01,6.743400573730468750e+01,-0.000000000000000000e+00,0.000000000000000000e+00,2.537022233009338379e-01,0.000000000000000000e+00,0.000000000000000000e+00,-0.000000000000000000e+00,-0.000000000000000000e+00,0.000000000000000000e+00,1.624823093414306641e+00,-0.000000000000000000e+00,0.000000000000000000e+00,0.000000000000000000e+00,9.999450683593750000e+00,-2.723720741271972656e+01,-0.000000000000000000e+00,-0.000000000000000000e+00,0.000000000000000000e+00,-0.000000000000000000e+00,0.000000000000000000e+00,-0.000000000000000000e+00,3.657753372192382812e+01,0.000000000000000000e+00,4.953170776367187500e+01,0.000000000000000000e+00,0.000000000000000000e+00,0.000000000000000000e+00,0.000000000000000000e+00,-0.000000000000000000e+00,0.000000000000000000e+00,0.000000000000000000e+00,-0.000000000000000000e+00,-6.186675071716308594e+00,-1.147081756591796875e+01,0.000000000000000000e+00,3.413655853271484375e+01,0.000000000000000000e+00,0.000000000000000000e+00,2.058142423629760742e+00,8.290408134460449219e+00,-0.000000000000000000e+00,4.556598281860351562e+01,-1.188834609985351562e+02,-4.924592494964599609e+00,-0.000000000000000000e+00,0.000000000000000000e+00,-1.270448017120361328e+01,1.599358320236206055e+00,-4.996539306640625000e+01,0.000000000000000000e+00,1.842906594276428223e+00,-9.583654999732971191e-02,-0.000000000000000000e+00,-0.000000000000000000e+00,-0.000000000000000000e+00,-1.293058156967163086e+00,5.429338812828063965e-01,0.000000000000000000e+00,0.000000000000000000e+00,0.000000000000000000e+00,-0.000000000000000000e+00,-8.307774353027343750e+01,0.000000000000000000e+00,-0.000000000000000000e+00,0.000000000000000000e+00,2.050461292266845703e+00,0.000000000000000000e+00,-1.022131347656250000e+01,-0.000000000000000000e+00,0.000000000000000000e+00,0.000000000000000000e+00,-0.000000000000000000e+00,0.000000000000000000e+00,2.869225692749023438e+01,-2.794740676879882812e+01,1.030433177947998047e+00,0.000000000000000000e+00,-0.000000000000000000e+00,0.000000000000000000e+00,-0.000000000000000000e+00,-0.000000000000000000e+00,1.088526306152343750e+02,-6.833886504173278809e-01,0.000000000000000000e+00,-0.000000000000000000e+00,2.699927139282226562e+01,0.000000000000000000e+00,1.713013458251953125e+01,0.000000000000000000e+00,3.031582832336425781e+00,-0.000000000000000000e+00,1.704359054565429688e+01,0.000000000000000000e+00,0.000000000000000000e+00,2.483254814147949219e+01,0.000000000000000000e+00,-6.336424827575683594e+00,0.000000000000000000e+00,0.000000000000000000e+00,1.581998252868652344e+01,3.052311897277832031e+00,0.000000000000000000e+00,-7.227091193199157715e-01,-3.452085703611373901e-02,0.000000000000000000e+00,0.000000000000000000e+00,-1.081137418746948242e+00,0.000000000000000000e+00,-2.101233291625976562e+01,-0.000000000000000000e+00,0.000000000000000000e+00,-6.854835510253906250e+01,0.000000000000000000e+00,1.165970611572265625e+01,0.000000000000000000e+00,1.441191864013671875e+02,1.321522426605224609e+01,0.000000000000000000e+00,0.000000000000000000e+00,0.000000000000000000e+00,3.021011054515838623e-01,0.000000000000000000e+00,8.121903228759765625e+01,0.000000000000000000e+00,0.000000000000000000e+00,-4.062301635742187500e+00,0.000000000000000000e+00,-1.752285385131835938e+01,1.500294589996337891e+01,-1.724443054199218750e+01,0.000000000000000000e+00,-8.749909400939941406e+00,-0.000000000000000000e+00,6.344951152801513672e+00,-2.199939727783203125e+01,-0.000000000000000000e+00,-0.000000000000000000e+00,0.000000000000000000e+00,-0.000000000000000000e+00,-1.045472335815429688e+01,-9.453299522399902344e+00,-0.000000000000000000e+00,0.000000000000000000e+00,-3.027400016784667969e+01,-0.000000000000000000e+00,0.000000000000000000e+00,0.000000000000000000e+00,5.273363494873046875e+01,-2.537553596496582031e+01,0.000000000000000000e+00,0.000000000000000000e+00,-0.000000000000000000e+00,0.000000000000000000e+00,5.736057281494140625e+01,-2.092710286378860474e-01,-0.000000000000000000e+00,0.000000000000000000e+00,0.000000000000000000e+00,0.000000000000000000e+00,0.000000000000000000e+00,-0.000000000000000000e+00,0.000000000000000000e+00,5.763005256652832031e+00,0.000000000000000000e+00,-0.000000000000000000e+00,1.595309853553771973e+00,-7.770020294189453125e+01,0.000000000000000000e+00,-0.000000000000000000e+00,-1.782777428627014160e+00,0.000000000000000000e+00,0.000000000000000000e+00,-0.000000000000000000e+00,-0.000000000000000000e+00,0.000000000000000000e+00,0.000000000000000000e+00,1.586762517690658569e-01,-5.546441078186035156e+00,-2.857099151611328125e+01,-6.224551391601562500e+01,-1.323389148712158203e+01,-1.730249786376953125e+02,0.000000000000000000e+00,0.000000000000000000e+00,2.593907737731933594e+01,6.451528072357177734e+00,0.000000000000000000e+00,0.000000000000000000e+00,0.000000000000000000e+00,-4.430111312866210938e+01,0.000000000000000000e+00,-0.000000000000000000e+00,-5.303194522857666016e-01,0.000000000000000000e+00,0.000000000000000000e+00,-0.000000000000000000e+00,-1.594233398437500000e+02,-3.132654428482055664e-01,7.650640010833740234e+00,0.000000000000000000e+00,4.806249237060546875e+01,-5.969763278961181641e+00,0.000000000000000000e+00,-2.038542175292968750e+01,0.000000000000000000e+00,0.000000000000000000e+00,1.121067237854003906e+01,0.000000000000000000e+00,-0.000000000000000000e+00,2.675346946716308594e+01,2.188491630554199219e+01,1.775179481506347656e+01,-1.018758678436279297e+01,7.794794559478759766e+00,-7.078218936920166016e+00,-6.282417297363281250e+00,0.000000000000000000e+00,1.485110759735107422e+00,2.416316986083984375e+00,-0.000000000000000000e+00,2.846791458129882812e+01,-2.110594660043716431e-01,4.384840774536132812e+01,-0.000000000000000000e+00,-0.000000000000000000e+00,0.000000000000000000e+00,5.417581939697265625e+01,0.000000000000000000e+00,-0.000000000000000000e+00,0.000000000000000000e+00,-0.000000000000000000e+00,-1.817936420440673828e+00,-0.000000000000000000e+00,-0.000000000000000000e+00,-9.564959526062011719e+00,-4.767061233520507812e+01,-0.000000000000000000e+00,0.000000000000000000e+00,0.000000000000000000e+00,0.000000000000000000e+00,-0.000000000000000000e+00,6.296909809112548828e+00,-5.758942031860351562e+01,0.000000000000000000e+00,0.000000000000000000e+00,-7.277172088623046875e+00,-0.000000000000000000e+00,1.085172748565673828e+01,3.647253417968750000e+01,-0.000000000000000000e+00,-1.001686859130859375e+01,3.763173294067382812e+01,0.000000000000000000e+00,0.000000000000000000e+00,-0.000000000000000000e+00,-0.000000000000000000e+00,0.000000000000000000e+00,0.000000000000000000e+00,-0.000000000000000000e+00,0.000000000000000000e+00,-0.000000000000000000e+00,-5.733173847198486328e+00,2.674798965454101562e+01,0.000000000000000000e+00,4.876298904418945312e+00,1.133733177185058594e+01,0.000000000000000000e+00,-0.000000000000000000e+00,0.000000000000000000e+00,-0.000000000000000000e+00,0.000000000000000000e+00,-0.000000000000000000e+00,0.000000000000000000e+00,0.000000000000000000e+00,-0.000000000000000000e+00,0.000000000000000000e+00,3.440255355834960938e+01,0.000000000000000000e+00,1.664144897460937500e+01,-0.000000000000000000e+00,-4.315925598144531250e+00,8.409323692321777344e+00,-0.000000000000000000e+00,-9.605353355407714844e+00,-2.406500244140625000e+01,-0.000000000000000000e+00,-0.000000000000000000e+00,0.000000000000000000e+00,0.000000000000000000e+00,-0.000000000000000000e+00,-0.000000000000000000e+00,-0.000000000000000000e+00,-1.652432203292846680e+00,0.000000000000000000e+00,6.652173995971679688e-01,1.618583526611328125e+02,2.350035905838012695e+00,-1.690957450866699219e+01,-1.775870666503906250e+02,0.000000000000000000e+00,0.000000000000000000e+00,-0.000000000000000000e+00,0.000000000000000000e+00,-4.257802963256835938e+01,-0.000000000000000000e+00,0.000000000000000000e+00,-0.000000000000000000e+00,0.000000000000000000e+00,-0.000000000000000000e+00,4.356197357177734375e+01,1.209700698852539062e+02,-0.000000000000000000e+00,0.000000000000000000e+00,-0.000000000000000000e+00,0.000000000000000000e+00,-0.000000000000000000e+00,-7.299866485595703125e+01,-0.000000000000000000e+00,-0.000000000000000000e+00,0.000000000000000000e+00,0.000000000000000000e+00,-0.000000000000000000e+00,-0.000000000000000000e+00,1.643526554107666016e+00,-0.000000000000000000e+00,1.891004943847656250e+01,-1.745053172111511230e+00,-2.144438743591308594e+01,0.000000000000000000e+00,0.000000000000000000e+00,0.000000000000000000e+00,0.000000000000000000e+00,-0.000000000000000000e+00,0.000000000000000000e+00,-0.000000000000000000e+00,0.000000000000000000e+00,1.492969870567321777e+00,2.750815773010253906e+01,0.000000000000000000e+00,-0.000000000000000000e+00,0.000000000000000000e+00,5.236502838134765625e+01,5.066517639160156250e+01,-6.041377544403076172e+00,-7.771282196044921875e+00,-0.000000000000000000e+00,-8.510225296020507812e+00,1.700515866279602051e+00,3.577527236938476562e+01,0.000000000000000000e+00,2.859739685058593750e+01,0.000000000000000000e+00,-7.140207672119140625e+01,4.417112827301025391e+00,9.262104988098144531e+00,-0.000000000000000000e+00,-1.553125915527343750e+02,0.000000000000000000e+00,-0.000000000000000000e+00,0.000000000000000000e+00,0.000000000000000000e+00,-0.000000000000000000e+00,0.000000000000000000e+00,-1.896554827690124512e+00,0.000000000000000000e+00,1.991505622863769531e+01,-2.374637126922607422e+00,-0.000000000000000000e+00,1.397352337837219238e+00,-0.000000000000000000e+00
1.659990501403808594e+01,3.440501987934112549e-01,-0.000000000000000000e+00,-4.123023033142089844e+00,-0.000000000000000000e+00,1.569832420349121094e+01,-1.087045764923095703e+01,0.000000000000000000e+00,-0.000000000000000000e+00,0.000000000000000000e+00,0.000000000000000000e+00,0.000000000000000000e+00,0.000000000000000000e+00,-0.000000000000000000e+00,-0.000000000000000000e+00,-1.680707931518554688e-01,-0.000000000000000000e+00,-0.000000000000000000e+00,0.000000000000000000e+00,0.000000000000000000e+00,-0.000000000000000000e+00,-0.000000000000000000e+00,0.000000000000000000e+00,1.818883895874023438e+00,-9.496111273765563965e-01,0.000000000000000000e+00,0.000000000000000000e+00,8.519868850708007812e+00,8.264459967613220215e-01,-0.000000000000000000e+00,-0.000000000000000000e+00,6.866489350795745850e-02,-0.000000000000000000e+00,-0.000000000000000000e+00,-0.000000000000000000e+00,0.000000000000000000e+00,0.000000000000000000e+00,0.000000000000000000e+00,7.262871742248535156e+00,-1.283935546875000000e+00,0.000000000000000000e+00,0.000000000000000000e+00,0.000000000000000000e+00,-3.317029476165771484e-01,-4.787987470626831055e-01,-1.453911811113357544e-01,-3.229761123657226562e+00,-2.520116567611694336e-01,0.000000000000000000e+00,-4.641203582286834717e-01,0.000000000000000000e+00,0.000000000000000000e+00,0.000000000000000000e+00,4.036557197570800781e+00,-2.198178768157958984e-01,-5.683601275086402893e-02,-2.758223712444305420e-01,-2.464277744293212891e+00,5.169898271560668945e-01,0.000000000000000000e+00,-4.702249050140380859e+00,3.108400821685791016e+00,1.054230570793151855e+00,-1.724147915840148926e+00,0.000000000000000000e+00,0.000000000000000000e+00,-0.000000000000000000e+00,-1.000668287277221680e+00,0.000000000000000000e+00,0.000000000000000000e+00,0.000000000000000000e+00,-7.979279041290283203e+00,-0.000000000000000000e+00,-0.000000000000000000e+00,-0.000000000000000000e+00,7.112878322601318359e+00,0.000000000000000000e+00,-3.759027481079101562e+00,4.909842491149902344e+00,0.000000000000000000e+00,2.388692474365234375e+01,-0.000000000000000000e+00,4.291099011898040771e-01,0.000000000000000000e+00,0.000000000000000000e+00,1.064383387565612793e+00,-0.000000000000000000e+00,4.665374383330345154e-02,1.617401695251464844e+01,0.000000000000000000e+00,-0.000000000000000000e+00,-2.284810543060302734e+00,-4.507515335083007812e+01,-0.000000000000000000e+00,1.434494686126708984e+01,0.000000000000000000e+00,0.000000000000000000e+00,-1.110067272186279297e+01,0.000000000000000000e+00,-0.000000000000000000e+00,-0.000000000000000000e+00,2.732832670211791992e+00,0.000000000000000000e+00,0.000000000000000000e+00,-0.000000000000000000e+00,-0.000000000000000000e+00,2.786521911621093750e+00,-8.323006629943847656e-01,-1.450006267987191677e-03,-2.238749992102384567e-03,-5.706917762756347656e+00,0.000000000000000000e+00,-0.000000000000000000e+00,3.446318626403808594e+00,-1.852883720397949219e+01,2.921358644962310791e-01,-0.000000000000000000e+00,0.000000000000000000e+00,0.000000000000000000e+00,0.000000000000000000e+00,-1.533077478408813477e+00,1.573062896728515625e+00,2.164717292785644531e+01,0.000000000000000000e+00,-2.075452089309692383e+00,1.310196685791015625e+01,-9.476297497749328613e-01,-0.000000000000000000e+00,-0.000000000000000000e+00,-5.030853271484375000e+01,2.480186462402343750e+00,-0.000000000000000000e+00,0.000000000000000000e+00,0.000000000000000000e+00,5.211835384368896484e+00,0.000000000000000000e+00,-5.018138408660888672e+00,4.179470062255859375e+00,-3.360323333740234375e+01,0.000000000000000000e+00,-5.045065879821777344e+00,-4.361782073974609375e+01,1.227764129638671875e+00,0.000000000000000000e+00,-6.845162808895111084e-02,-1.463283538818359375e+00,-0.000000000000000000e+00,-8.821724891662597656e+00,2.387894690036773682e-01,-3.675779402256011963e-01,-1.641997098922729492e-01,1.662934422492980957e+00,2.647087872028350830e-01,0.000000000000000000e+00,0.000000000000000000e+00,-0.000000000000000000e+00,0.000000000000000000e+00,-0.000000000000000000e+00,1.050915336608886719e+01,0.000000000000000000e+00,-4.173561477661132812e+01,8.889892578125000000e+00,-2.171411924064159393e-02,-8.826466798782348633e-01,1.473482131958007812e+01,0.000000000000000000e+00,0.000000000000000000e+00,0.000000000000000000e+00,-7.805421829223632812e+00,-0.000000000000000000e+00,-1.607581600546836853e-02,-1.407981395721435547e+00,-0.000000000000000000e+00,-0.000000000000000000e+00,4.736455917358398438e+00,-2.909766578674316406e+01,-3.013088226318359375e+00,-0.000000000000000000e+00,0.000000000000000000e+00,-0.000000000000000000e+00,0.000000000000000000e+00,0.000000000000000000e+00,4.702124023437500000e+01,4.520622491836547852e-01,0.000000000000000000e+00,-1.359852409362792969e+01,-2.799870109558105469e+01,0.000000000000000000e+00,-1.238005352020263672e+01,-0.000000000000000000e+00,0.000000000000000000e+00,3.810961246490478516e+00,-1.520106911659240723e+00,-0.000000000000000000e+00,3.588818712159991264e-03,-5.856899619102478027e-01,-1.461239624023437500e+01,-8.169664144515991211e-01,1.824743151664733887e+00,0.000000000000000000e+00,-4.777685642242431641e+00,-0.000000000000000000e+00,-0.000000000000000000e+00,1.639830946922302246e+00,0.000000000000000000e+00,9.098735451698303223e-01,-8.608976364135742188e+00,9.650753974914550781e+00,2.138982534408569336e+00,1.028038787841796875e+01,-0.000000000000000000e+00,2.531723976135253906e-01,-0.000000000000000000e+00,-2.071194909512996674e-02,-5.771605014801025391e+00,4.750442981719970703e+00,0.000000000000000000e+00,-6.501842021942138672e+00,-9.976894378662109375e+00,1.085997104644775391e+00,0.000000000000000000e+00,0.000000000000000000e+00,-9.368707656860351562e+00,-5.337052941322326660e-01,0.000000000000000000e+00,3.002067804336547852e-01,-1.626110076904296875e+01,2.284409046173095703e+00,0.000000000000000000e+00,0.000000000000000000e+00,7.267724722623825073e-02,-1.074728584289550781e+01,-0.000000000000000000e+00,1.098763942718505859e+00,0.000000000000000000e+00,-0.000000000000000000e+00,-1.132721662521362305e+00,-0.000000000000000000e+00,-0.000000000000000000e+00,-0.000000000000000000e+00,0.000000000000000000e+00,0.000000000000000000e+00,2.329485893249511719e+00,0.000000000000000000e+00,2.989018201828002930e+00,-5.566234111785888672e+00,0.000000000000000000e+00,0.000000000000000000e+00,-3.552608728408813477e+00,-0.000000000000000000e+00,-1.112467002868652344e+01,4.727787017822265625e+01,-3.791545331478118896e-01,0.000000000000000000e+00,0.000000000000000000e+00,0.000000000000000000e+00,2.566930532455444336e+00,-6.645572662353515625e+00,0.000000000000000000e+00,7.535744190216064453e+00,-0.000000000000000000e+00,0.000000000000000000e+00,-9.942925572395324707e-01,7.537234306335449219e+00,-6.082521751523017883e-03,0.000000000000000000e+00,0.000000000000000000e+00,-2.406876385211944580e-01,-0.000000000000000000e+00,0.000000000000000000e+00,-0.000000000000000000e+00,1.753650158643722534e-01,-3.485208511352539062e+00,1.520538234710693359e+01,0.000000000000000000e+00,-2.152116596698760986e-01,5.609413981437683105e-01,0.000000000000000000e+00,-0.000000000000000000e+00,3.462362766265869141e+00,0.000000000000000000e+00,9.204743504524230957e-01,-5.323099438101053238e-03,0.000000000000000000e+00,0.000000000000000000e+00,6.015429973602294922e+00,-0.000000000000000000e+00,0.000000000000000000e+00,8.104110717773437500e+00,0.000000000000000000e+00,0.000000000000000000e+00,-0.000000000000000000e+00,-0.000000000000000000e+00,1.471941471099853516e-01,-6.989392280578613281e+00,-0.000000000000000000e+00,0.000000000000000000e+00,1.452562332153320312e+01,-0.000000000000000000e+00,-3.995641469955444336e-01,2.804744148254394531e+01,-1.046333312988281250e+00,6.213833689689636230e-01,-0.000000000000000000e+00,1.700770187377929688e+01,-1.440595239400863647e-01,-5.307239055633544922e+00,-0.000000000000000000e+00,5.247938632965087891e-01,-0.000000000000000000e+00,1.187971687316894531e+01,-0.000000000000000000e+00,-2.460176944732666016e+00,5.033767223358154297e-01,0.000000000000000000e+00,-3.168587684631347656e+00,-0.000000000000000000e+00,-3.136427141726016998e-03,-0.000000000000000000e+00,-3.994145154953002930e+00,-2.943708181381225586e+00,0.000000000000000000e+00,-4.973147392272949219e+00,0.000000000000000000e+00,-2.614993476867675781e+01,0.000000000000000000e+00,-0.000000000000000000e+00,0.000000000000000000e+00,-7.858016014099121094e+00,0.000000000000000000e+00,-9.154343008995056152e-01,0.000000000000000000e+00,-3.451169967651367188e+00,-1.292217671871185303e-01,0.000000000000000000e+00,0.000000000000000000e+00,-1.299890756607055664e+00,0.000000000000000000e+00,-0.000000000000000000e+00,-0.000000000000000000e+00,-4.285796642303466797e+00,-6.054510116577148438e+00,-0.000000000000000000e+00,1.924234628677368164e-01,0.000000000000000000e+00,-0.000000000000000000e+00,-2.836725860834121704e-02,-2.016620063781738281e+01,2.864353942871093750e+01,0.000000000000000000e+00,-0.000000000000000000e+00,0.000000000000000000e+00,-2.382778525352478027e-01,0.000000000000000000e+00,-0.000000000000000000e+00,0.000000000000000000e+00,-1.895037293434143066e+00,6.019583702087402344e+00,0.000000000000000000e+00,-2.722820043563842773e+00,-3.108569145202636719e+00,-2.544913291931152344e+01,-8.997499465942382812e+00,-3.626681900024414062e+01,-0.000000000000000000e+00,-6.964932680130004883e-01,2.688365280628204346e-01,0.000000000000000000e+00,-0.000000000000000000e+00,8.368839263916015625e+00,-1.576887249946594238e+00,6.275494396686553955e-02,0.000000000000000000e+00,0.000000000000000000e+00,0.000000000000000000e+00,-2.940775394439697266e+00,0.000000000000000000e+00,-0.000000000000000000e+00,4.576167583465576172e+00,7.035816192626953125e+00,-5.242941379547119141e-01,0.000000000000000000e+00,0.000000000000000000e+00,0.000000000000000000e+00,2.283124066889286041e-02,-0.000000000000000000e+00,0.000000000000000000e+00,2.546569347381591797e+00,0.000000000000000000e+00,0.000000000000000000e+00,0.000000000000000000e+00,1.787075424194335938e+01,-5.954608917236328125e-01,8.697516322135925293e-01,-4.870783910155296326e-02,-1.107682037353515625e+01,-2.226605653762817383e+00,0.000000000000000000e+00,2.121842575073242188e+01,2.958362817764282227e+00,4.711951255798339844e+00,0.000000000000000000e+00,-2.802064323425292969e+01,-0.000000000000000000e+00,-0.000000000000000000e+00,1.896538734436035156e+00,-1.801295638084411621e+00,0.000000000000000000e+00,-0.000000000000000000e+00,-0.000000000000000000e+00,-0.000000000000000000e+00,-0.000000000000000000e+00,-1.120786190032958984e+00,-1.851121068000793457e+00,0.000000000000000000e+00,-0.000000000000000000e+00,0.000000000000000000e+00,0.000000000000000000e+00,-7.837240695953369141e+00,-1.701562665402889252e-03,0.000000000000000000e+00,-0.000000000000000000e+00,-2.135494232177734375e+00,2.740279006958007812e+01,-5.384383257478475571e-03,3.866639614105224609e+00,-0.000000000000000000e+00,8.452305793762207031e+00,-1.556545257568359375e+00,0.000000000000000000e+00,0.000000000000000000e+00,0.000000000000000000e+00,0.000000000000000000e+00,-9.597761929035186768e-02,-9.852212667465209961e-01,0.000000000000000000e+00,0.000000000000000000e+00,-6.728341579437255859e-01,0.000000000000000000e+00,-0.000000000000000000e+00,0.000000000000000000e+00,-7.904924154281616211e-01,-0.000000000000000000e+00,1.316009610891342163e-01,0.000000000000000000e+00,-0.000000000000000000e+00,4.566949009895324707e-01,1.203819274902343750e+01,-5.313282012939453125e+01,3.212080764770507812e+01,-0.000000000000000000e+00,-0.000000000000000000e+00,-0.000000000000000000e+00,-0.000000000000000000e+00,-0.000000000000000000e+00,0.000000000000000000e+00,4.487165927886962891e+00,-0.000000000000000000e+00,-3.410997390747070312e+00,0.000000000000000000e+00,7.120260000228881836e-01,-6.518908500671386719e+00,-5.824217224121093750e+01,0.000000000000000000e+00,0.000000000000000000e+00,0.000000000000000000e+00,0.000000000000000000e+00,1.523764967918395996e+00,9.483767509460449219e+00,-6.623378396034240723e-01,-8.186020851135253906e+00,3.010777197778224945e-02,-8.622638702392578125e+00,-3.579962253570556641e+00,-1.544392299652099609e+01,0.000000000000000000e+00,3.238371372222900391e+00,4.210907936096191406e+00,2.728022098541259766e+00,-1.598963856697082520e+00,1.741095304489135742e+00,3.754986763000488281e+00,0.000000000000000000e+00,2.456043064594268799e-01,-0.000000000000000000e+00,-0.000000000000000000e+00,-1.765333414077758789e+00,-1.488803005218505859e+01,-1.073709793090820312e+02,0.000000000000000000e+00,3.301296234130859375e+00,0.000000000000000000e+00,2.818680286407470703e+00,0.000000000000000000e+00,-0.000000000000000000e+00,0.000000000000000000e+00,3.055926561355590820e+00,-0.000000000000000000e+00,0.000000000000000000e+00,3.433414101600646973e-01,-1.910234570503234863e+00,3.846854209899902344e+00,-2.392594337463378906e+01,0.000000000000000000e+00,0.000000000000000000e+00,-5.020677447319030762e-01,-3.520427465438842773e+00,0.000000000000000000e+00,-2.812061309814453125e+00,-2.632274150848388672e+00,0.000000000000000000e+00,1.180816364288330078e+01,0.000000000000000000e+00,-3.723788738250732422e+00,0.000000000000000000e+00,0.000000000000000000e+00,2.705498456954956055e+00,-6.301301479339599609e+00,3.276582717895507812e+00,-8.114092826843261719e+00,-5.915738940238952637e-01,-2.993854045867919922e+00,0.000000000000000000e+00,-0.000000000000000000e+00,-0.000000000000000000e+00,-1.514452248811721802e-01,-1.726317167282104492e+00,-2.364919900894165039e+00,6.206911087036132812e+00,-0.000000000000000000e+00,1.924948310852050781e+01,-2.833322286605834961e-01,0.000000000000000000e+00,-1.487817764282226562e+00,-0.000000000000000000e+00,0.000000000000000000e+00,-1.695607185363769531e+00,-0.000000000000000000e+00,2.429270267486572266e+00,-2.449273318052291870e-01,0.000000000000000000e+00,0.000000000000000000e+00,2.150144815444946289e+00,-1.664599418640136719e+01,9.844067692756652832e-01,0.000000000000000000e+00,9.672989845275878906e+00,-9.014123678207397461e-02,-1.388737320899963379e+00,-0.000000000000000000e+00,-9.788750857114791870e-02,-5.512491989135742188e+01,-3.535328674316406250e+01,0.000000000000000000e+00,-4.176438331604003906e+00,-6.171766519546508789e-01,0.000000000000000000e+00,-0.000000000000000000e+00,-2.582244575023651123e-02,-3.236372375488281250e+01,-1.160388350486755371e+00,0.000000000000000000e+00,-2.187667608261108398e+00,-3.909572601318359375e+00,5.945754528045654297e+00,0.000000000000000000e+00,5.616104125976562500e+00,-6.530983448028564453e+00,-2.741706669330596924e-01,1.008845996856689453e+01,-1.708084344863891602e+00,5.527737808227539062e+01,-0.000000000000000000e+00,-1.480453372001647949e+00,-0.000000000000000000e+00,0.000000000000000000e+00,-2.593461275100708008e+00,-4.035230278968811035e-01,-1.870611572265625000e+01,-8.500903129577636719e+00,3.355880737304687500e+00,1.698254394531250000e+01,-4.194212704896926880e-02,-7.483131289482116699e-01,-4.029043674468994141e+00,-0.000000000000000000e+00,-7.090883731842041016e+00,0.000000000000000000e+00,0.000000000000000000e+00,0.000000000000000000e+00,-2.895961380004882812e+01,-3.953047990798950195e+00,1.334865212440490723e+00,-0.000000000000000000e+00,-0.000000000000000000e+00,1.510560363531112671e-01,2.410696983337402344e+00,0.000000000000000000e+00,8.807264328002929688e+00,0.000000000000000000e+00,0.000000000000000000e+00,-0.000000000000000000e+00,-8.098652958869934082e-01,0.000000000000000000e+00,0.000000000000000000e+00,-8.735021948814392090e-01,-3.848537802696228027e-01,0.000000000000000000e+00,2.203262090682983398e+00,0.000000000000000000e+00,-1.990660429000854492e+00,-9.903985977172851562e+00,2.432070541381835938e+01,5.336515426635742188e+00,0.000000000000000000e+00,-0.000000000000000000e+00,5.830974102020263672e+00,1.766265106201171875e+01,-0.000000000000000000e+00,-0.000000000000000000e+00,-4.475031661987304688e+01,1.261348009109497070e+00,-0.000000000000000000e+00,1.695810854434967041e-01,-0.000000000000000000e+00,1.481153678894042969e+01,-0.000000000000000000e+00,-0.000000000000000000e+00,-0.000000000000000000e+00,-0.000000000000000000e+00,0.000000000000000000e+00,-3.341393768787384033e-01,-0.000000000000000000e+00,-9.703081130981445312e+00,-2.019519996643066406e+01,1.238922476768493652e-01,2.869959592819213867e+00,-0.000000000000000000e+00,0.000000000000000000e+00,0.000000000000000000e+00,-1.594898796081542969e+01,2.018103408813476562e+01,4.598567581176757812e+01,1.573739318847656250e+02,0.000000000000000000e+00,-1.353388118743896484e+01,0.000000000000000000e+00,1.656488418579101562e+01,0.000000000000000000e+00,2.487851865589618683e-02,2.624401569366455078e+00,1.360939025878906250e+01,-0.000000000000000000e+00,8.429796099662780762e-01,-0.000000000000000000e+00,0.000000000000000000e+00,0.000000000000000000e+00,-0.000000000000000000e+00,-0.000000000000000000e+00,0.000000000000000000e+00,-1.684493064880371094e+00,1.199072551727294922e+01,1.100166678428649902e+00,0.000000000000000000e+00,-0.000000000000000000e+00,-5.072728633880615234e+00,0.000000000000000000e+00,0.000000000000000000e+00,4.659004509449005127e-01,-8.770564079284667969e+00,0.000000000000000000e+00,1.327247858047485352e+00,-1.630878448486328125e-02,2.174992084503173828e+00,0.000000000000000000e+00,4.155583381652832031e+00,-3.469454050064086914e+00,1.528661346435546875e+01,-0.000000000000000000e+00,-6.161500453948974609e+00,-0.000000000000000000e+00,0.000000000000000000e+00,-2.770088195800781250e+01,-0.000000000000000000e+00,7.563761711120605469e+00,1.534616565704345703e+01,1.497630715370178223e+00,0.000000000000000000e+00,0.000000000000000000e+00,-6.930219531059265137e-01,-0.000000000000000000e+00,-0.000000000000000000e+00,6.669255733489990234e+00,-4.849133014678955078e+00,0.000000000000000000e+00,-8.208389282226562500e+00,-3.604111194610595703e+00,-0.000000000000000000e+00,-0.000000000000000000e+00,4.467574310302734375e+01,-0.000000000000000000e+00,0.000000000000000000e+00,0.000000000000000000e+00,-3.951621055603027344e+00,4.801101684570312500e+01,-1.648105829954147339e-01,-6.691086292266845703e+00,5.176555514335632324e-01,-4.626054763793945312e+00,-0.000000000000000000e+00,-4.625981807708740234e+00,-5.435859680175781250e+00,-1.030672788619995117e+00,0.000000000000000000e+00,7.325998306274414062e+00,1.084877681732177734e+01,2.300244140625000000e+01,9.919118881225585938e+00,1.939556479454040527e+00,0.000000000000000000e+00,-1.870485842227935791e-01,-6.279192924499511719e+00,-3.370430707931518555e+00,-1.588137245178222656e+01,-5.616749525070190430e-01,-0.000000000000000000e+00,-1.051653146743774414e+00,-1.531169265508651733e-01,0.000000000000000000e+00,0.000000000000000000e+00,0.000000000000000000e+00,0.000000000000000000e+00,1.035633850097656250e+01,0.000000000000000000e+00,0.000000000000000000e+00,-1.069156527519226074e+00,0.000000000000000000e+00,0.000000000000000000e+00,0.000000000000000000e+00,0.000000000000000000e+00,0.000000000000000000e+00,-6.919944763183593750e+00,0.000000000000000000e+00,-0.000000000000000000e+00,5.622672557830810547e+00,-9.626452922821044922e-01,-0.000000000000000000e+00,-0.000000000000000000e+00,0.000000000000000000e+00,-1.008765792846679688e+01,0.000000000000000000e+00,4.194143295288085938e+00,-3.962566852569580078e+00,-1.461542129516601562e+01,-0.000000000000000000e+00,9.916930198669433594e+00,-1.896646022796630859e-01,-0.000000000000000000e+00,-3.111402130126953125e+01,0.000000000000000000e+00,-3.732049465179443359e-01,0.000000000000000000e+00,-5.398365259170532227e-01,-0.000000000000000000e+00,0.000000000000000000e+00,-0.000000000000000000e+00,-0.000000000000000000e+00,8.625722885131835938e+00,0.000000000000000000e+00,5.721163272857666016e+00,8.572850227355957031e+00,-0.000000000000000000e+00,0.000000000000000000e+00,-5.044406509399414062e+01,0.000000000000000000e+00,0.000000000000000000e+00,0.000000000000000000e+00,0.000000000000000000e+00
